{
    "nh": 8,
    "ns": 2,
    "na": 8,
    "net": {
        "W1": {
            "n": 8,
            "d": 2,
            "w": {
                "0": 0.4432648746918813,
                "1": -0.7701291072919301,
                "2": 0.1259366502999079,
                "3": 0.16773304356654203,
                "4": 0.3745845708443998,
                "5": -0.21661521347068857,
                "6": 0.9259912235690595,
                "7": 7.756660870104334,
                "8": -0.06831894977812945,
                "9": -0.611260594040866,
                "10": 2.566692171710627,
                "11": 4.510254300989138,
                "12": 0.03213532245621698,
                "13": -0.18402554079017877,
                "14": -0.937252709653398,
                "15": -0.5339157690607351
            }
        },
        "b1": {
            "n": 8,
            "d": 1,
            "w": {
                "0": -0.04543912475042095,
                "1": -0.012963331867362652,
                "2": -0.031575125071829545,
                "3": -0.6547623434612801,
                "4": 0.017845734751057604,
                "5": 0.23666009194174056,
                "6": 0.0010704745752250593,
                "7": 0.11808066877020314
            }
        },
        "W2": {
            "n": 8,
            "d": 8,
            "w": {
                "0": -0.05806113500122099,
                "1": -0.042509122606622395,
                "2": -0.06703725036606524,
                "3": -0.3569161085611139,
                "4": 0.0654537049217865,
                "5": 0.602231362866623,
                "6": 0.008630429474308133,
                "7": 0.2387343381520374,
                "8": -0.05687660181464752,
                "9": -0.022828180479653785,
                "10": -0.05112401985037156,
                "11": -0.4716538902697312,
                "12": 0.023429014393757434,
                "13": 0.6325390255206519,
                "14": -0.0001976984947889042,
                "15": 0.13084145697192062,
                "16": -0.0937879848275225,
                "17": -0.016512372916574803,
                "18": -0.06983004497631773,
                "19": -0.4553890008029453,
                "20": -0.007069930639219865,
                "21": 0.5920365556388738,
                "22": -0.011306547183346125,
                "23": 0.11368279590539042,
                "24": -0.11500658944631989,
                "25": 0.0060817954520164365,
                "26": -0.0560677411007843,
                "27": -0.4381652776708672,
                "28": -0.0576409046710932,
                "29": 0.4904619936216886,
                "30": -0.022168228850387786,
                "31": 0.014587557489994664,
                "32": -0.16079217495347692,
                "33": 0.016613773752743765,
                "34": -0.0737297982023431,
                "35": -0.38329098901888037,
                "36": -0.10108627215979588,
                "37": 0.41165313923565305,
                "38": -0.03538057908211169,
                "39": 0.017990186345794607,
                "40": -0.1278883902484557,
                "41": -0.008412436192911361,
                "42": -0.08518729781840313,
                "43": -0.4580758528412855,
                "44": -0.037134346199179664,
                "45": 0.5303852422746496,
                "46": -0.021488869904625327,
                "47": 0.12288109738791334,
                "48": -0.19013244775125995,
                "49": -0.003801099104449799,
                "50": -0.09326288490525228,
                "51": -0.459476335720023,
                "52": -0.0624561044289962,
                "53": 0.559458586066659,
                "54": -0.0255754279602164,
                "55": 0.15537898468558944,
                "56": -0.1318220530963349,
                "57": -0.01726607268031085,
                "58": -0.07611272962942318,
                "59": -0.41617004980471295,
                "60": -0.010585938581944461,
                "61": 0.5517438424356652,
                "62": -0.011198739301927737,
                "63": 0.18540462100528507
            }
        },
        "b2": {
            "n": 8,
            "d": 1,
            "w": {
                "0": 0.5901832954547415,
                "1": 0.6185444829112107,
                "2": 0.5252178419973808,
                "3": 0.5520220098169701,
                "4": 0.5646194541586973,
                "5": 0.5376798938262108,
                "6": 0.5557533585956507,
                "7": 0.5412431889833439
            }
        }
    }
}