{
    "nh": 16,
    "ns": 15,
    "na": 8,
    "net": {
        "W1": {
            "n": 16,
            "d": 15,
            "w": {
                "0": 0.060455247503095826,
                "1": 0.08996284418857836,
                "2": 0.08651462528955266,
                "3": 0.01948287803885428,
                "4": -0.003921936920155494,
                "5": 0.0027292195337179277,
                "6": 0.009866148270993197,
                "7": -0.024835924592904284,
                "8": 0.011066417677298481,
                "9": 0.002481995218416102,
                "10": 0.0003545327674614971,
                "11": 0.002747181029639684,
                "12": -0.004905240378665622,
                "13": -0.0034683231757243805,
                "14": -0.010816007405618902,
                "15": 0.03454615224979372,
                "16": -0.07520989576715166,
                "17": 0.03803824185359556,
                "18": -0.2357227766114132,
                "19": 0.0220934446253875,
                "20": 0.01525403760772723,
                "21": -0.0003731879050183599,
                "22": -0.007816791418230754,
                "23": 0.0001710279132630676,
                "24": -0.011560043915102377,
                "25": 0.006325474320465175,
                "26": -0.0005447959237437494,
                "27": -0.01603740153557349,
                "28": -0.005148812041162607,
                "29": -0.0009021504251822163,
                "30": -9.562095664918798,
                "31": -0.8371949363299737,
                "32": 4.619914164372933,
                "33": 4.514178133273042,
                "34": 0.0014161998067949827,
                "35": 0.0012466017936582283,
                "36": 0.0016085262269795154,
                "37": -0.0007144681869669966,
                "38": 0.010983390490727588,
                "39": 0.009098752295921317,
                "40": 0.002543488126798566,
                "41": 0.005723788981782072,
                "42": 0.004876581528578135,
                "43": -0.006294200015945677,
                "44": -0.010054994593400661,
                "45": 7.279050203435033,
                "46": -2.4974346327459354,
                "47": 1.5781345440966588,
                "48": 8.021695036514055,
                "49": 0.00981149055102835,
                "50": 0.012727498215338074,
                "51": -0.004160397107794407,
                "52": -0.001714051678764142,
                "53": -0.007328829716417861,
                "54": -0.005992526611134466,
                "55": 0.0008904975315364359,
                "56": 0.002322240366664594,
                "57": 0.0019648210251741716,
                "58": -0.002454404091325108,
                "59": -0.01079245884968408,
                "60": 0.0088989013304769,
                "61": -0.019246918683184264,
                "62": -0.12911411736875492,
                "63": -0.1883074415873548,
                "64": -0.0018283118385129557,
                "65": -0.00310966736853528,
                "66": -0.010464640481494076,
                "67": -0.0106391758977528,
                "68": 0.005523893863678663,
                "69": 0.004810931755839668,
                "70": 0.008409987019248428,
                "71": 0.01378735237083656,
                "72": 0.0021234131083822136,
                "73": 0.0062800598642261465,
                "74": -0.001989746643100659,
                "75": -0.8619304614923539,
                "76": -1.491450128740736,
                "77": -4.1917952516750185,
                "78": -1.132038596308241,
                "79": 0.0046093675818829685,
                "80": -0.009783507078789012,
                "81": -0.003843018272251028,
                "82": 0.002503851171820562,
                "83": 0.024363028541546688,
                "84": 0.012067799061223997,
                "85": 0.006926630849394959,
                "86": -0.013615419719746332,
                "87": -0.01160699973715696,
                "88": 0.014087480329156696,
                "89": 0.012895788445495526,
                "90": -0.7398930171248049,
                "91": -1.8607193614332445,
                "92": -1.1805246271641638,
                "93": 19.02403791685591,
                "94": -0.005235897775411739,
                "95": -0.020934788067339682,
                "96": 0.01046001983548202,
                "97": -0.0012332456907435288,
                "98": -0.012975064252277138,
                "99": -0.00440085598109458,
                "100": 0.0034008169007846284,
                "101": -0.011500724402792794,
                "102": -0.006161646073607878,
                "103": -0.0003772274934159944,
                "104": -0.0009493577538091503,
                "105": -0.006257583916210249,
                "106": 0.09804451522823329,
                "107": -0.030485099445376806,
                "108": 0.04350596259454019,
                "109": -0.005101689657906881,
                "110": -0.008478235596036134,
                "111": -0.0021490415930971673,
                "112": 0.001089692500450723,
                "113": 0.023040147137718656,
                "114": -0.017467061466730046,
                "115": -0.0011003868008541448,
                "116": 0.0017642878952237226,
                "117": 0.021574981057555242,
                "118": 0.002606696147807116,
                "119": 0.010513634496707726,
                "120": 1.6332864691311546,
                "121": 1.1533545247176886,
                "122": -18.36431510034969,
                "123": 0.6856334866766293,
                "124": 0.009556531073112842,
                "125": 0.006969879522321661,
                "126": -0.015625142982443444,
                "127": 0.006066176922053883,
                "128": -0.019324248943434874,
                "129": -0.011675287566451194,
                "130": -0.004409816045948883,
                "131": -0.009052745543767268,
                "132": -0.007086300391901868,
                "133": 0.0034270925060703216,
                "134": 0.00010050618032924802,
                "135": 0.011191979003845937,
                "136": -0.14873793925127315,
                "137": 0.05260313246876953,
                "138": -0.15629359386210723,
                "139": 0.01647729442719286,
                "140": 0.013376303292533283,
                "141": -0.004255052255604324,
                "142": -0.007054134758061964,
                "143": -0.008466209180584714,
                "144": 0.011702229131795128,
                "145": 0.01743353105688723,
                "146": -0.009699785681923008,
                "147": -0.0014152179024597175,
                "148": -0.012799785859256313,
                "149": 0.011583003387193369,
                "150": -19.980832380636905,
                "151": 1.2342436259894167,
                "152": -0.272425177284171,
                "153": 0.4854373682874193,
                "154": 0.0006968093047060908,
                "155": -0.006410774705488219,
                "156": 0.01646749160315611,
                "157": -0.002663010214706186,
                "158": -0.0015878056973173426,
                "159": 0.008838413746892855,
                "160": -0.011693026028162776,
                "161": -0.0054102813178316346,
                "162": -0.00031119212892574536,
                "163": -0.011320647338137368,
                "164": -0.01706640409618494,
                "165": -0.011213130737365067,
                "166": -0.2078438482236764,
                "167": 0.17869789079572854,
                "168": 0.06433582563019456,
                "169": 0.010341181383731612,
                "170": 0.0048027989492818056,
                "171": -0.0034033595119894906,
                "172": -0.01853965300279288,
                "173": -0.011969973872275065,
                "174": 0.0028879050779503563,
                "175": -0.005304310729889091,
                "176": 0.023258288842679584,
                "177": -0.00273828215061012,
                "178": -0.0016092293598058422,
                "179": 0.019581353745058212,
                "180": -0.025595880915499112,
                "181": -0.023130893148703886,
                "182": 0.04019397060859749,
                "183": 0.08718198160135303,
                "184": 0.010422707365985473,
                "185": -0.0021573572345933646,
                "186": 0.0006711917206339617,
                "187": -0.005279887637764121,
                "188": 0.003296285551385262,
                "189": -0.01751698019453747,
                "190": -0.02030810311391549,
                "191": 0.011257221707759349,
                "192": 0.003915498799085791,
                "193": -0.02770061529173523,
                "194": -0.00035614173627694645,
                "195": -0.06313384786633462,
                "196": 0.13339841762846016,
                "197": 0.0492281885786201,
                "198": -0.13734521706760083,
                "199": -0.0046199723235039285,
                "200": 0.010793841003692121,
                "201": -0.0066087412344688345,
                "202": 0.005581916967222917,
                "203": -0.023307990448209456,
                "204": -0.0011676833230114538,
                "205": -0.021159441409643123,
                "206": 0.00048288995879754897,
                "207": -0.016501792520412815,
                "208": 0.0031762028300752814,
                "209": 0.0018486289738640044,
                "210": -1.9910173132935545,
                "211": 20.504186229590307,
                "212": -0.43066279485877657,
                "213": -0.3342271282795298,
                "214": -0.011999995718991628,
                "215": -0.002557516045406299,
                "216": -0.005774977387581069,
                "217": 0.000993616025204897,
                "218": 0.004515461347707439,
                "219": -0.004279020024274051,
                "220": -0.006696335807603894,
                "221": 0.002197711902994609,
                "222": 0.0020028573846766684,
                "223": 0.0051290786252909774,
                "224": 0.005680641975459335,
                "225": 0.01808361175578235,
                "226": -0.1519261920725544,
                "227": 0.043108156393735,
                "228": -0.16690299723074845,
                "229": -0.013452353768219417,
                "230": -0.012174760413918257,
                "231": -0.007002113769103955,
                "232": -0.00487541368760551,
                "233": -0.006121675497933863,
                "234": -0.007384214004863967,
                "235": -0.010994433740468301,
                "236": 0.018489762708587883,
                "237": 0.007026416683588717,
                "238": -0.00833996640810433,
                "239": 0.001856952654569706
            }
        },
        "b1": {
            "n": 16,
            "d": 1,
            "w": {
                "0": -0.0826285426663444,
                "1": 0.062048634931120714,
                "2": 6.636800033048885,
                "3": 0.26756722208254347,
                "4": 0.09251075023031159,
                "5": 0.3503169777954418,
                "6": -0.9976974831868591,
                "7": -0.03446844912481178,
                "8": 0.6051899080859904,
                "9": 0.07081019787677877,
                "10": 1.3780958560172405,
                "11": 0.004397486750122487,
                "12": -0.01976784588459116,
                "13": -0.01658785883870393,
                "14": -1.1009969917652722,
                "15": 0.07586439445302526
            }
        },
        "W2": {
            "n": 8,
            "d": 16,
            "w": {
                "0": -0.04335476545320899,
                "1": 0.08768376210996107,
                "2": -4.2924674831125476,
                "3": -1.0940109475273039,
                "4": 0.088453151032285,
                "5": -0.5632527340590903,
                "6": -0.8730461922124563,
                "7": -0.024645444667946943,
                "8": 0.7093301757481856,
                "9": 0.0708757250213225,
                "10": 1.357128283640268,
                "11": -0.014048325883816852,
                "12": -0.028946691429773345,
                "13": 0.0422809124141789,
                "14": -0.5396771531011969,
                "15": 0.07502470543168453,
                "16": -0.09032483770316643,
                "17": -0.023946845274669788,
                "18": -4.025768237363852,
                "19": -0.6864093701601786,
                "20": 0.07347115435920201,
                "21": -0.18538598163891948,
                "22": -0.9331643983594358,
                "23": -0.007088735027624686,
                "24": 0.7250285356021172,
                "25": -0.0012379165177999487,
                "26": 1.0249096488902216,
                "27": -0.04311740402344606,
                "28": -0.00915671255085002,
                "29": -0.07748874086553384,
                "30": -0.6828235947092132,
                "31": 0.0041976877891981785,
                "32": -0.048101637074012306,
                "33": 0.05661114705738561,
                "34": -3.7939244302958395,
                "35": -1.4171681511204097,
                "36": 0.0759680854440416,
                "37": 0.34800499207821256,
                "38": -0.8738131531159378,
                "39": -0.016277921568326425,
                "40": 0.9296135869079797,
                "41": 0.047297157465372504,
                "42": 0.8604706113354034,
                "43": -0.022499146195010696,
                "44": -0.021410991265793284,
                "45": 0.02791273509635849,
                "46": -0.4891655751673882,
                "47": 0.05057198360566929,
                "48": -0.08225745281213005,
                "49": 0.10432224914326882,
                "50": -3.5459375567564337,
                "51": -1.9504018219129506,
                "52": 0.10000997396914436,
                "53": -0.04036221657416925,
                "54": -1.1271647874032693,
                "55": -0.053410660967245,
                "56": 0.8732620273117604,
                "57": 0.1123198073353503,
                "58": 0.6418384882949892,
                "59": 0.03959002255159986,
                "60": -0.022597141962256692,
                "61": -0.0036057211326598784,
                "62": -0.3519132494422043,
                "63": 0.11767740097211739,
                "64": -0.03853052932223855,
                "65": 0.05769863973023678,
                "66": -0.5434421976417793,
                "67": -1.4916514666919516,
                "68": 0.08007182756440323,
                "69": -0.19425908801516087,
                "70": -0.9443803512508842,
                "71": -0.013152879669615179,
                "72": 0.7581019068958594,
                "73": 0.04228119400051726,
                "74": 0.9835627948101023,
                "75": -0.03600034968152429,
                "76": -0.02754491903922628,
                "77": 0.01906177523559025,
                "78": -0.6474027799467342,
                "79": 0.04688665519551376,
                "80": -0.015966014852672118,
                "81": 0.01737800299027112,
                "82": -4.017163466045757,
                "83": -0.5589313030952493,
                "84": 0.034977374450238706,
                "85": -0.03708062789468674,
                "86": -0.8632331795471874,
                "87": -0.0032187045234331794,
                "88": 0.7276741481546662,
                "89": 0.01088071952473244,
                "90": 1.0297337067195569,
                "91": -0.024593059850545728,
                "92": -0.013737463694601333,
                "93": -0.00457679383679134,
                "94": -0.7745946011417258,
                "95": 0.013515471756824066,
                "96": -0.06455937600190452,
                "97": 0.021276660268552676,
                "98": -3.7677041616305966,
                "99": -1.4956832186532416,
                "100": 0.08596591906455806,
                "101": 0.23859496953200673,
                "102": -0.8599832922107382,
                "103": -0.0038606778772840183,
                "104": 0.8195349946725156,
                "105": 0.015795796402761096,
                "106": 0.6688496030273176,
                "107": -0.06296800170310252,
                "108": -0.024079322641966685,
                "109": -0.007500901073934423,
                "110": -0.6605057912489718,
                "111": 0.020812809982617884,
                "112": -0.030979570799276063,
                "113": 0.04711245181011216,
                "114": -3.947724459804378,
                "115": -1.6417106822516956,
                "116": 0.11383612732786612,
                "117": -0.3220695593290132,
                "118": -0.9592398972537358,
                "119": 0.02245973755791792,
                "120": 0.8303139272455778,
                "121": -0.0027449995437039305,
                "122": 1.059465831345746,
                "123": -0.1453907057965549,
                "124": -0.04862231385019687,
                "125": 0.08400506578723473,
                "126": -0.6191482990289139,
                "127": 0.0023658013486811767
            }
        },
        "b2": {
            "n": 8,
            "d": 1,
            "w": {
                "0": 9.375334951040672,
                "1": 8.922005405117861,
                "2": 9.767826062847854,
                "3": 9.464455481451205,
                "4": 6.229930906874607,
                "5": 8.97751930621145,
                "6": 9.590992580111704,
                "7": 9.84729304931182
            }
        }
    }
}