{
    "nh": 16,
    "ns": 27,
    "na": 8,
    "net": {
        "W1": {
            "n": 16,
            "d": 27,
            "w": {
                "0": 4.740485909304057,
                "1": 2.043832682826021,
                "2": 0.5807066820310894,
                "3": 2.6242428959196338,
                "4": -0.7849773957400838,
                "5": -3.406319756960145,
                "6": 0.8334239520693046,
                "7": 3.871730421081002,
                "8": -0.013425756729576474,
                "9": -0.013533325449461292,
                "10": -0.010277335200524419,
                "11": -0.006544494617321869,
                "12": -0.0026200304258120065,
                "13": 0.0006393326018125977,
                "14": 0.00805453951823392,
                "15": -0.016787008557222014,
                "16": -0.00015660469838344867,
                "17": 0.015911382115685463,
                "18": 0.00367959343382781,
                "19": 0.011598246459700317,
                "20": 0.01160260091226482,
                "21": -0.010931553975309236,
                "22": 0.005920207327277267,
                "23": -0.0017871468639085429,
                "24": -0.001040824900758815,
                "25": -0.0028823260416100116,
                "26": 0.001918509751097621,
                "27": -2.5833925032240534,
                "28": -2.3263322767705636,
                "29": -2.8770447504336047,
                "30": -4.591328311783735,
                "31": 6.327742720406051,
                "32": -0.8888099011827966,
                "33": -1.098509677447644,
                "34": -1.9587514014745189,
                "35": -0.014120703150882664,
                "36": -0.019942819968794823,
                "37": 0.00039250582403434653,
                "38": 0.0029694043726482128,
                "39": -0.013756595005905009,
                "40": -0.016739732137116343,
                "41": -0.010572740460952228,
                "42": -0.006213376917464818,
                "43": -0.003971003680307652,
                "44": 0.010073872879476751,
                "45": -0.005501880547137724,
                "46": 0.012073544551535136,
                "47": -0.011033747887698985,
                "48": -0.010410088603516825,
                "49": -0.007274100737835461,
                "50": 0.0072207083578370145,
                "51": 0.005200061327190749,
                "52": -0.01654100505314729,
                "53": 0.007549866911777856,
                "54": -0.24801037637010387,
                "55": 1.2342968020340723,
                "56": -0.29114128430791775,
                "57": 4.959917181232316,
                "58": 0.6602145376022175,
                "59": 7.676107922107397,
                "60": 3.1248062499929614,
                "61": -0.24858658900605266,
                "62": 0.007855522600636535,
                "63": 0.02087344734339632,
                "64": -0.0012407346909723326,
                "65": -0.000024903255062424884,
                "66": 0.007921611590815931,
                "67": -0.025615231989372055,
                "68": -0.01753213980496917,
                "69": -0.005222430112749864,
                "70": 0.004045218167455145,
                "71": -0.00137257976029498,
                "72": 0.0030765692642741316,
                "73": 0.011134128664615972,
                "74": 0.007095075065126128,
                "75": 0.011690282543072302,
                "76": 0.009637057229430564,
                "77": -0.008739265560481834,
                "78": -0.018038054861063267,
                "79": -0.005934653726500463,
                "80": -0.009022972234105683,
                "81": 5.416203716494628,
                "82": 1.4349286169346553,
                "83": 3.22902204976022,
                "84": -2.7632084537299555,
                "85": -1.002945041788844,
                "86": -5.1373928735318275,
                "87": 1.4011979886132766,
                "88": 1.9211190143965873,
                "89": -0.0008619079514964502,
                "90": 0.0018918195144382406,
                "91": 0.003168357700463511,
                "92": -0.00950817665582206,
                "93": -0.004583093436908586,
                "94": 0.012014497174176818,
                "95": 0.0018157444153290422,
                "96": -0.0009712479835696744,
                "97": -0.033560789794073294,
                "98": -0.008156312983644116,
                "99": -0.011267215654378578,
                "100": 0.0005811349896986046,
                "101": -0.0007136934761330166,
                "102": -0.02330720107515928,
                "103": -0.00545601171467121,
                "104": 0.0021368850909029304,
                "105": 0.010594597870223068,
                "106": -0.005646758379010286,
                "107": 0.0026535554096140186,
                "108": -0.10709476516016653,
                "109": 0.047863197153342245,
                "110": 0.06742493130376441,
                "111": -0.15103587873908592,
                "112": 0.030128539357442467,
                "113": 0.9656453369927531,
                "114": -0.4547285157143684,
                "115": 0.2968508010584599,
                "116": 0.005228576288262806,
                "117": -0.008954597607080261,
                "118": 0.001910361671903638,
                "119": -0.000442359107414159,
                "120": 0.007356524579696055,
                "121": -0.003910323643399743,
                "122": 0.007357617509250556,
                "123": -0.0003188198722744624,
                "124": -0.022842410943211714,
                "125": -0.00765043926186064,
                "126": 0.00575797927517835,
                "127": -0.005066667838655068,
                "128": -0.010304253706058971,
                "129": -0.0026143823891629147,
                "130": -0.010813556955924366,
                "131": 0.019753634170105033,
                "132": 0.005218024208420267,
                "133": -0.022023787787459982,
                "134": 0.0047579929429830735,
                "135": -0.7464523428109396,
                "136": -3.3699703934015033,
                "137": -6.414522913454081,
                "138": -4.413665678971748,
                "139": 1.513158381579043,
                "140": -2.028054210680157,
                "141": 1.1131794885727082,
                "142": -9.965046971682494,
                "143": 0.018019393290050617,
                "144": 0.015887861684401552,
                "145": 0.010051232655217188,
                "146": -0.002941787207499729,
                "147": -0.0007161259331205016,
                "148": 0.009573791999482462,
                "149": 0.021535276861890745,
                "150": 0.007277372637769669,
                "151": -0.00929554737377218,
                "152": -0.006923100095928181,
                "153": -0.0008481961230530181,
                "154": -0.007539199164950192,
                "155": -0.0040201253703309545,
                "156": -0.0011795201193974408,
                "157": -0.010275008700107495,
                "158": -0.009634263707325508,
                "159": -0.01249370803634326,
                "160": -0.017932206580293063,
                "161": -0.0010910449981464281,
                "162": -1.556125058368681,
                "163": -0.5267696469256101,
                "164": 0.10027551722677626,
                "165": -1.6141979659524246,
                "166": -3.0793854097888422,
                "167": -4.6023909883655,
                "168": 6.264336576289793,
                "169": 6.329165855249123,
                "170": 0.021476639386876457,
                "171": -0.00014847136671907441,
                "172": -0.022493377907620384,
                "173": -0.005445809687266766,
                "174": -0.008711957866817428,
                "175": -0.0013501286890581935,
                "176": 0.0018242970225266567,
                "177": 0.001907111127673206,
                "178": -0.007167009971851408,
                "179": -0.005597630039802086,
                "180": -0.004219239926657177,
                "181": -0.00848736085348888,
                "182": -0.001913134111632171,
                "183": 0.006332798788374394,
                "184": -0.015913697370681348,
                "185": -0.0050318575274666474,
                "186": -0.0040010347682739094,
                "187": -0.01252037976133028,
                "188": 0.01068680991678631,
                "189": -0.30981976586483767,
                "190": 0.011461149582884356,
                "191": 0.3662556031786002,
                "192": 0.452343108035937,
                "193": -0.046955318603857786,
                "194": 0.9269698924266381,
                "195": 0.5021116611257539,
                "196": -0.15765216342213634,
                "197": -0.010270691243748199,
                "198": -0.021745434828404967,
                "199": -0.004125914143487159,
                "200": -0.010200143098355279,
                "201": -0.00903380263096404,
                "202": -0.005126953617871214,
                "203": 0.007278924766296537,
                "204": -0.0027764146739617484,
                "205": 0.003350443689674625,
                "206": -0.0022989054115289333,
                "207": 0.013099847722818737,
                "208": 0.009009931890530898,
                "209": -0.00831578992786134,
                "210": -0.005162907218585886,
                "211": -0.013017233724245788,
                "212": 0.008645757735387878,
                "213": 0.022334094431008304,
                "214": -0.009028455437370391,
                "215": 0.0007384097375207481,
                "216": -1.658890157489036,
                "217": -2.429723064406593,
                "218": 0.27798702863372665,
                "219": 2.5685467420334884,
                "220": 0.26897742730429947,
                "221": -8.037961813971627,
                "222": -4.3051379265663945,
                "223": -3.0762439276330213,
                "224": -0.004823109686140169,
                "225": -0.015942777410512768,
                "226": -0.02071075866998003,
                "227": 0.012365012492305955,
                "228": 0.0004579837473455293,
                "229": 0.02331474671129202,
                "230": 0.0184087688724183,
                "231": 0.005683389119635392,
                "232": -0.015301291225335302,
                "233": 0.016820294176782696,
                "234": 0.007089608901344273,
                "235": -0.008575298438004635,
                "236": -0.0019624776029884784,
                "237": -0.018462580208741558,
                "238": -0.027961084236717094,
                "239": -0.005346308068554002,
                "240": 0.0054641057118219915,
                "241": -0.007909306521030748,
                "242": -0.009748557088161343,
                "243": 1.3319958475685025,
                "244": 0.5165204154791583,
                "245": 14.146335315364123,
                "246": 2.194502631967507,
                "247": 0.730280579026918,
                "248": -3.057802113797119,
                "249": 0.7528271334106482,
                "250": 9.05401590226393,
                "251": 0.00626349908422956,
                "252": -0.012117106199438581,
                "253": -0.0019289293682417793,
                "254": -0.010078037777991945,
                "255": 0.007700324729396013,
                "256": 0.007258897969936578,
                "257": 0.007762168415040401,
                "258": 0.01181269778031486,
                "259": 0.011810634167955294,
                "260": -0.006401403812443724,
                "261": 0.002932603453679219,
                "262": 0.008722937407296426,
                "263": -0.003890370305120696,
                "264": 0.0024528252616302774,
                "265": -0.0022902860382889912,
                "266": -0.003928871194830977,
                "267": 0.011538701048834608,
                "268": 0.0010341905060553683,
                "269": 0.0037271645640257656,
                "270": -2.589695326331596,
                "271": -10.450087523602248,
                "272": -11.134108019812443,
                "273": 1.9898499360779807,
                "274": 5.402105105556058,
                "275": 0.9483268108054352,
                "276": 5.264590052663332,
                "277": 3.495970843843905,
                "278": 0.01470879003859121,
                "279": -0.0042477278117700286,
                "280": -0.01067306190369692,
                "281": -0.000394843620830827,
                "282": -0.0025319899980064254,
                "283": -0.009826438575791496,
                "284": 0.0002078767022517097,
                "285": 0.005831627429521976,
                "286": -0.021108147820694537,
                "287": -0.011663046746844931,
                "288": -0.010137807349607992,
                "289": 0.013632763574696602,
                "290": 0.0024788316449230355,
                "291": 0.018090411011885906,
                "292": -0.004076492233512713,
                "293": 0.0006852747503101336,
                "294": -0.018761691649784414,
                "295": -0.0013995612331797655,
                "296": 0.016096603997939024,
                "297": 2.164168405099459,
                "298": 1.3845656314179418,
                "299": 1.9722951911729296,
                "300": -2.7001735148280517,
                "301": 1.7128131416169932,
                "302": -2.2838673536494225,
                "303": 5.055496550301604,
                "304": -0.12352535288172777,
                "305": -0.005009262629269909,
                "306": -0.002916595035700439,
                "307": -0.003228647613597242,
                "308": 0.00460670924187324,
                "309": 0.01701217317158672,
                "310": 0.02158779203825795,
                "311": -0.020176393481847153,
                "312": -0.00378328202055197,
                "313": -0.0008892835926619965,
                "314": -0.005359698384728877,
                "315": 0.013863737774661202,
                "316": -0.008108078486400152,
                "317": 0.00630000634875451,
                "318": -0.00032963882167370617,
                "319": 0.017041408601164217,
                "320": 0.017075420632805195,
                "321": 0.013163480707696438,
                "322": 0.018140772208912862,
                "323": 0.004706101429442581,
                "324": 1.7407510673519009,
                "325": 5.313305949744556,
                "326": 4.7647155480925,
                "327": 0.9689396488405825,
                "328": 9.17061554040195,
                "329": -6.824685925922322,
                "330": -8.095401188509708,
                "331": 6.425491264463434,
                "332": -0.008003022118227607,
                "333": -0.007332987528818923,
                "334": 0.003976939650637548,
                "335": -0.004399518695650513,
                "336": -0.006768656100336219,
                "337": -0.0104394256050706,
                "338": -0.012438868570056843,
                "339": -0.014175911514423906,
                "340": 0.009922029975511806,
                "341": 0.006535855304444664,
                "342": 0.005080622704381651,
                "343": 0.01735974274631976,
                "344": -0.0006625638559329396,
                "345": 0.016004834769050052,
                "346": -0.0009204893631606393,
                "347": 0.0021835325078494484,
                "348": -0.00448556232360618,
                "349": -0.0029774737433656247,
                "350": 0.015331924433406047,
                "351": -13.016227265044154,
                "352": -0.19466560190110735,
                "353": -2.7814877935053817,
                "354": 3.8123819614943546,
                "355": 0.7757914146603999,
                "356": -1.2206905235692842,
                "357": -1.6391855937747075,
                "358": 1.3136877394264035,
                "359": 0.011111674792667604,
                "360": 0.005206058130195554,
                "361": 0.0105437069873307,
                "362": 0.0059319689999583125,
                "363": 0.0014696734016282017,
                "364": 0.015802463252565024,
                "365": 0.0010567350250307768,
                "366": -0.007261595687365135,
                "367": 0.008840352624404012,
                "368": 0.00867425481662356,
                "369": -0.0034622454175117327,
                "370": 0.007772261530728147,
                "371": 0.0022633075491129994,
                "372": 0.01038694345727025,
                "373": 0.004831666881326196,
                "374": 0.0024244100917202166,
                "375": -0.004285241645848574,
                "376": -0.012939872662911554,
                "377": -0.008105057910591127,
                "378": 2.1579860479229063,
                "379": 2.233294391922998,
                "380": 2.643324477626103,
                "381": 3.0404230210054854,
                "382": -0.4982138607626686,
                "383": 8.16901284881879,
                "384": -0.501863817557472,
                "385": 1.5605699535458188,
                "386": -0.009528770032578826,
                "387": 0.004195112337783282,
                "388": -0.011700500924847373,
                "389": -0.00445437107575111,
                "390": -0.0009530821611440274,
                "391": 0.004986199742802533,
                "392": -0.012028321431332353,
                "393": -0.009811097999924558,
                "394": -0.008220365530659877,
                "395": 0.014126330895201945,
                "396": 0.009368130756371891,
                "397": -0.0021839167096195673,
                "398": 0.003321777568601763,
                "399": -0.02506393686179621,
                "400": -0.0027910824889947746,
                "401": -0.0076229512907486875,
                "402": -0.001495637185650196,
                "403": 0.006303038276186741,
                "404": 0.006464845273686339,
                "405": 0.1430399594922735,
                "406": -0.2996668974365237,
                "407": 0.38384416720038356,
                "408": -0.34537728336978135,
                "409": -0.005891149839134234,
                "410": 0.016361814458175344,
                "411": -0.16154785651499823,
                "412": 0.24606007365394042,
                "413": -0.005241499832768403,
                "414": 0.006459836926338304,
                "415": 0.015065307996954552,
                "416": 0.019271873214862213,
                "417": 0.020184354546919577,
                "418": -0.004334797426470593,
                "419": -0.008464123438752018,
                "420": 0.0008145081774489175,
                "421": 0.015394365590545677,
                "422": 0.002036593961741076,
                "423": -0.002150081896302185,
                "424": -0.0005630568684954683,
                "425": -0.0006777168090453534,
                "426": 0.0024053136404011415,
                "427": 0.01790354767555454,
                "428": 0.007549356485104798,
                "429": -0.013374317506167513,
                "430": 0.0025045567343539694,
                "431": -0.004225954414529316
            }
        },
        "b1": {
            "n": 16,
            "d": 1,
            "w": {
                "0": -7.220762738327229,
                "1": -4.416738613886144,
                "2": 0.6316599226533033,
                "3": 2.916305762975705,
                "4": -0.8609277543934073,
                "5": 0.8040871323350756,
                "6": 2.005831288355376,
                "7": -1.6034655393152046,
                "8": -1.248187655282729,
                "9": -0.4858798168049351,
                "10": -4.4069372246447305,
                "11": -2.4943535791888576,
                "12": -3.144205326824238,
                "13": 1.7195650153298265,
                "14": -7.699532999924414,
                "15": -0.10112125092351887
            }
        },
        "W2": {
            "n": 8,
            "d": 16,
            "w": {
                "0": -1.3210321889117593,
                "1": -0.27742467963962014,
                "2": 2.953022963393581,
                "3": -0.11829203789478825,
                "4": 0.10598858282045874,
                "5": 0.9179937224776443,
                "6": -0.46217552101725934,
                "7": 0.144887032384797,
                "8": -0.34973621379182046,
                "9": -0.7195153821221083,
                "10": 1.1435395689592092,
                "11": -1.1704422524914095,
                "12": -1.1695742985824071,
                "13": -0.032532220017580195,
                "14": -2.843381752512338,
                "15": -0.05523828427530288,
                "16": -1.1212913047742115,
                "17": -0.08185002711849773,
                "18": 5.654440840086117,
                "19": 0.05067826473007126,
                "20": -0.00003529770265698934,
                "21": 1.073995426550701,
                "22": -0.5504109199967682,
                "23": 0.06739237581530906,
                "24": -0.7432232549364934,
                "25": -0.8059522210797098,
                "26": 1.010674101124648,
                "27": -0.5564822049471966,
                "28": -1.4604013903268114,
                "29": 1.3148074501174654,
                "30": -2.819054213690047,
                "31": -0.05599987619694241,
                "32": -1.1126169556281151,
                "33": -0.05037852369604403,
                "34": 5.287179974920867,
                "35": 0.6847454196981004,
                "36": -0.07193222951494489,
                "37": 1.3476526222359846,
                "38": -0.5808648084995932,
                "39": 0.009269369669706743,
                "40": -1.00363797414024,
                "41": -0.576445226370239,
                "42": 1.0006607262810308,
                "43": -0.8491734882667612,
                "44": -1.33299430263807,
                "45": 1.3578555007733124,
                "46": -1.6143008476743228,
                "47": 0.023800108267434065,
                "48": -0.8858264547822979,
                "49": -0.017025971082121793,
                "50": 5.140943301587141,
                "51": 1.3468067378080908,
                "52": -0.02738527250490359,
                "53": 1.166694644513898,
                "54": -0.727458526192758,
                "55": -0.05365398218025011,
                "56": 0.39882028405633924,
                "57": -0.9388118042942256,
                "58": 1.0676889949326984,
                "59": -1.5320127122785578,
                "60": -1.208941190022906,
                "61": 0.9681119208716191,
                "62": -2.251993580734195,
                "63": 0.0013988276503810776,
                "64": -1.2563537551045247,
                "65": 0.29871280781302234,
                "66": 4.825648691246783,
                "67": 0.15730519675327567,
                "68": -0.09264588174076423,
                "69": 1.1467608033146766,
                "70": -0.6927409379048789,
                "71": -0.18445636511676766,
                "72": -0.07473410070617208,
                "73": -0.7853488609464508,
                "74": -0.619090252324949,
                "75": -0.9990959807335437,
                "76": -1.0308315777411643,
                "77": 0.22207331104949274,
                "78": -2.894236048291354,
                "79": 0.04275546744674107,
                "80": -0.9957074027952305,
                "81": 0.29914458439023284,
                "82": 0.9718545390581075,
                "83": 2.066607556219394,
                "84": -0.06723423537794028,
                "85": 0.8525343570781267,
                "86": -0.9579876536037972,
                "87": -0.03886443895653896,
                "88": 1.3584322654177774,
                "89": -0.826309458683864,
                "90": 0.006634647879665452,
                "91": -1.2259934529178587,
                "92": -1.3975745691223806,
                "93": 1.8639045391616789,
                "94": -1.1194346177454653,
                "95": -0.03592742839371771,
                "96": -0.8193004545997808,
                "97": -0.19633229825610538,
                "98": 3.455069421886761,
                "99": 0.8121063052718468,
                "100": -0.0821180773651769,
                "101": 1.6577143307834792,
                "102": -0.6562294371917459,
                "103": -0.04587191737366291,
                "104": 0.8760858885094484,
                "105": -0.5252146889235297,
                "106": 0.6404521757467067,
                "107": -1.3826453125814946,
                "108": -1.6339448337593607,
                "109": 1.463360931697672,
                "110": -0.6640056505410138,
                "111": 0.004280937692297947,
                "112": -1.2177605171166979,
                "113": -0.28616585808775397,
                "114": 5.773883158804423,
                "115": 0.346219768548975,
                "116": -0.05839910804170926,
                "117": 1.4172553411723428,
                "118": -0.7579948756875381,
                "119": 0.044708204278849105,
                "120": 0.7141600625259678,
                "121": -0.8063226956860794,
                "122": 0.31002277741057643,
                "123": -0.7989442340131098,
                "124": -1.3267338726774547,
                "125": 1.338937379948835,
                "126": -2.4752609747210244,
                "127": -0.07392467669594562
            }
        },
        "b2": {
            "n": 8,
            "d": 1,
            "w": {
                "0": 9.539560527598002,
                "1": 7.456712519057488,
                "2": 6.401918688137994,
                "3": 7.941866768743146,
                "4": 6.930623036628604,
                "5": 11.004287377803967,
                "6": 9.127284909882542,
                "7": 8.087831305997137
            }
        }
    }
}