{
    "nh": 36,
    "ns": 9,
    "na": 4,
    "net": {
        "W1": {
            "n": 36,
            "d": 9,
            "w": {
                "0": -0.2592194157231997,
                "1": -0.6596306311176781,
                "2": 1.0686846037651931,
                "3": -1.393118937416198,
                "4": 1.4299568760949515,
                "5": -1.9084569377975553,
                "6": 0.48241361776273156,
                "7": 0.9333883358967089,
                "8": 0.5087312034205467,
                "9": 0.018009003515402616,
                "10": 0.59186513378562,
                "11": -0.6106241155108915,
                "12": -0.038514425599790236,
                "13": 0.15813194959649046,
                "14": 0.018384581438434314,
                "15": -0.024179065234049293,
                "16": -0.2049768072587121,
                "17": 0.08369085412876591,
                "18": 0.6795783271935647,
                "19": -6.787002563797779,
                "20": -1.6370695089773977,
                "21": 0.17265139377980723,
                "22": 0.002310335436253573,
                "23": -0.13738762922530698,
                "24": 0.12549501053082746,
                "25": 0.10548613123733562,
                "26": -0.28780085531711197,
                "27": -0.006510394376408541,
                "28": -1.4149691474437667,
                "29": 0.9049420120452484,
                "30": 0.8205293101757671,
                "31": -0.5585161552770742,
                "32": 4.366644074433692,
                "33": 1.5675325999788314,
                "34": 7.1058332094804895,
                "35": 0.12845381310428652,
                "36": 0.05373990385807279,
                "37": -0.7764359516313072,
                "38": -0.13012432866371737,
                "39": 0.7111475870837548,
                "40": 0.6319820055643153,
                "41": -1.2305239552065608,
                "42": -1.7629717136416323,
                "43": 2.1374282861291753,
                "44": -1.04517946552304,
                "45": -0.057678421427885734,
                "46": 0.49320186611929834,
                "47": 0.008298857892010006,
                "48": 0.08291190055735631,
                "49": 0.44826720571682444,
                "50": 0.20230670196730297,
                "51": 0.043774392990938674,
                "52": 0.25476697271201226,
                "53": -0.044945634444072805,
                "54": 0.5526121130008647,
                "55": -0.8262671159510978,
                "56": -0.23926989898718642,
                "57": 1.300555474185255,
                "58": -1.2255937427440327,
                "59": 2.621437752897939,
                "60": 1.9862265787793023,
                "61": 2.6508857397919474,
                "62": 1.2044942663473588,
                "63": 0.035315832374480265,
                "64": 0.5321057739004894,
                "65": 0.01683373727690348,
                "66": -0.042098462539169455,
                "67": 0.14288720780882136,
                "68": -0.0849654425455261,
                "69": -0.007465278979556285,
                "70": 0.08854869041490651,
                "71": 0.06038659094231641,
                "72": -0.0691527763302459,
                "73": -0.11743858469223474,
                "74": -0.2851706978949688,
                "75": 0.1678017403875073,
                "76": -0.06952008227191953,
                "77": 0.14598219890566852,
                "78": 0.1110744100532426,
                "79": 0.156250783727046,
                "80": -0.08313372188391702,
                "81": -0.010137440266840426,
                "82": 0.2604240758942615,
                "83": -0.37357914988466434,
                "84": -0.041793706901076505,
                "85": 0.05312749293454934,
                "86": -0.01321180257784836,
                "87": 0.18235330856727364,
                "88": 0.11558454207644775,
                "89": 0.007848137341022533,
                "90": -0.3899253343317735,
                "91": 0.48252561273852174,
                "92": 0.2797174190902889,
                "93": -0.9683870020297347,
                "94": 1.6160260486374585,
                "95": -1.8580941331427219,
                "96": -1.2529137783452373,
                "97": -1.0573747057899003,
                "98": -0.22944903192998364,
                "99": 0.0006948070751827054,
                "100": -0.5111534050224816,
                "101": 0.23119926478293604,
                "102": -0.023508619710087865,
                "103": -0.11107362421018989,
                "104": -0.0060347369837064815,
                "105": -0.07333235710628269,
                "106": -0.16588126063648315,
                "107": -0.03125654375372609,
                "108": 0.03679948603418625,
                "109": 1.2034301521915725,
                "110": 0.28255808292848783,
                "111": -0.10481045554409427,
                "112": -0.44672102566076416,
                "113": -1.3136168500427399,
                "114": -0.3981868610683921,
                "115": 2.3728975304853583,
                "116": 1.2389713570300012,
                "117": 2.677734060380791,
                "118": 1.7119409709735312,
                "119": 0.08496643603893533,
                "120": 1.9145798813422583,
                "121": -0.44067486555773694,
                "122": 2.675495390029325,
                "123": 0.5170540131560222,
                "124": 1.0355917658303604,
                "125": -0.26347449808537177,
                "126": 0.07472562094917157,
                "127": -0.8356164282140655,
                "128": -0.42018028537133595,
                "129": -1.5938312565125228,
                "130": -0.13297713518910134,
                "131": -3.181751828008273,
                "132": 0.46751953991978706,
                "133": -1.8000087672384213,
                "134": 1.314414325657451,
                "135": -0.15705992054751722,
                "136": -1.364923521491873,
                "137": -0.17677264921964891,
                "138": 0.7952130134897757,
                "139": -0.20389235589662236,
                "140": 4.036903665559351,
                "141": 0.8437552067175782,
                "142": 8.069472332651797,
                "143": 1.5169419033640803,
                "144": -0.027186912980075893,
                "145": 0.3408237955286886,
                "146": -0.32882233631804336,
                "147": 0.049179457530363783,
                "148": 0.1095357098360065,
                "149": 0.033180050693389314,
                "150": 0.19634268320125,
                "151": 0.29991838235692764,
                "152": -0.07549806128774822,
                "153": -0.034326273422503516,
                "154": 0.2404888228847585,
                "155": -0.38931450185905175,
                "156": 0.07125944040345282,
                "157": 0.12858719604212596,
                "158": 0.012704432689144673,
                "159": 0.14065078963036257,
                "160": 0.18488646570550069,
                "161": 0.023683349844230265,
                "162": 2.5703648597414595,
                "163": 0.8545471386185766,
                "164": -0.8547255029716976,
                "165": 1.5337906327750475,
                "166": -1.8119938202022694,
                "167": -0.6164646325370918,
                "168": 0.3894412745269634,
                "169": 1.0764008915059868,
                "170": -0.9239780268278479,
                "171": -0.48484492430307913,
                "172": -0.5408411312919628,
                "173": 0.6123752265585403,
                "174": 0.8213273935726761,
                "175": 2.2095530986397702,
                "176": -1.4958763664076398,
                "177": -0.8649452274660479,
                "178": 2.4332850560355572,
                "179": -0.0431471850506952,
                "180": 0.04495690598587495,
                "181": -0.3098362795073236,
                "182": 0.26170218742827706,
                "183": -0.15922653167107853,
                "184": -0.19195572402577205,
                "185": -0.09868499379344661,
                "186": -0.13737970231496838,
                "187": -0.34290543562377146,
                "188": 0.07248853574883027,
                "189": 0.0063491730226140925,
                "190": -0.295788542303561,
                "191": 0.555506868888179,
                "192": 0.034414792843516374,
                "193": -0.13160130427395011,
                "194": -0.041700854985777434,
                "195": -0.09044407999452024,
                "196": 0.22709304276289802,
                "197": -0.08385365473537,
                "198": 0.06723879218287744,
                "199": -1.7537066392003764,
                "200": -0.3349144877063887,
                "201": -1.0607971476686404,
                "202": 0.07822545444925388,
                "203": -2.039641529734012,
                "204": 0.18287947340414576,
                "205": -0.5687560380018143,
                "206": 2.0273346086138586,
                "207": 0.9722526967474671,
                "208": 0.2740362312196918,
                "209": -1.082453528158344,
                "210": 2.622984448137299,
                "211": -1.1435282122288148,
                "212": 2.3766209352320167,
                "213": 1.794594357645077,
                "214": -2.1979739828488616,
                "215": 2.7567673457438966,
                "216": 0.02650630993719981,
                "217": 0.18747266086878658,
                "218": 0.07041250039881479,
                "219": -0.047033726105815805,
                "220": 0.1143563058657489,
                "221": -0.1014086759847059,
                "222": -0.03698463558323419,
                "223": 0.03658946129318943,
                "224": 0.022274812302824545,
                "225": 0.03694160917284014,
                "226": 0.1728159733351488,
                "227": 0.6276259090616924,
                "228": -0.13472027132169456,
                "229": -0.0973000530223786,
                "230": 0.0010172954414460768,
                "231": 0.05639387329956205,
                "232": 0.06688680516066574,
                "233": 0.08046976399951568,
                "234": 0.023216792318994883,
                "235": 0.4573326966945946,
                "236": 0.3063587863319991,
                "237": 0.07392548552605004,
                "238": 0.04675980512487539,
                "239": -0.05676127250829706,
                "240": -0.1262644891919568,
                "241": 0.18646139672974657,
                "242": 0.0811481827674016,
                "243": -0.6781586060486448,
                "244": 0.6123478024525983,
                "245": 0.9173905156212034,
                "246": 0.46119226380203393,
                "247": 1.2229498012175828,
                "248": -0.6115084006933096,
                "249": -0.9815750235012023,
                "250": 3.0196783951427233,
                "251": 1.1060933232634387,
                "252": -0.03961609681544866,
                "253": -0.32625110082064684,
                "254": 0.028732833832586353,
                "255": 0.0959457454692342,
                "256": -0.03934845707448428,
                "257": 0.0185214960642694,
                "258": 0.02318619181998046,
                "259": 0.060177167912373014,
                "260": 0.002522846938694088,
                "261": -0.01843651504269532,
                "262": -0.1895026915704728,
                "263": 0.12618608854780092,
                "264": 0.9207100498468689,
                "265": -0.7427133308035019,
                "266": -1.4013518028867091,
                "267": -2.6113722006359152,
                "268": -1.8937521909495532,
                "269": -1.0478359624768172,
                "270": -0.27978442804734943,
                "271": 0.8068722297090354,
                "272": -1.2392793069158246,
                "273": 0.31115259144845675,
                "274": 0.8315222190502453,
                "275": 0.7819531644027624,
                "276": 0.24014041950345913,
                "277": 0.7764802570695694,
                "278": -0.44297112508696124,
                "279": -0.016872486751112265,
                "280": 0.07943155159636679,
                "281": 0.45015168200588956,
                "282": 0.12265095602880097,
                "283": -0.6087411983348574,
                "284": -0.48571810067640975,
                "285": 0.41352819478240116,
                "286": 0.8298834341020999,
                "287": 0.20049070681979872,
                "288": -0.0035348373499275118,
                "289": 0.5258820868087549,
                "290": 0.35410445767308524,
                "291": 0.1503494091760147,
                "292": -0.05306176566626032,
                "293": -0.011879500467494865,
                "294": -0.21624509847909604,
                "295": 0.2895088076333089,
                "296": 0.025026394446913087,
                "297": 0.05168731532797174,
                "298": -0.23164798268244968,
                "299": 0.4197488915406534,
                "300": -0.17008965590121403,
                "301": -0.22062087018745674,
                "302": -0.10551216934734793,
                "303": -0.1656735127783211,
                "304": -0.34554685149417036,
                "305": 0.06130518583959426,
                "306": -0.5520845400015311,
                "307": -3.325214366810553,
                "308": -7.542596291504892,
                "309": -0.34358670369408856,
                "310": -0.08977523963961875,
                "311": 0.039752420051002726,
                "312": -0.03937077712579601,
                "313": 0.28274921772886247,
                "314": 0.022116932811521838,
                "315": -0.6000015865871519,
                "316": -5.387059421477546,
                "317": 6.200551962208945,
                "318": -0.13648759873277944,
                "319": 0.10109594902744763,
                "320": -0.22375929678760612,
                "321": -0.2810115942623028,
                "322": 0.16334401584382327,
                "323": 0.18255792415395222
            }
        },
        "b1": {
            "n": 36,
            "d": 1,
            "w": {
                "0": -0.25956167872913416,
                "1": 0.016712423045783544,
                "2": 0.6718350919276255,
                "3": -0.01753037951430742,
                "4": 0.044111667955970206,
                "5": -0.050439056752304506,
                "6": 0.5592924877496405,
                "7": 0.020240633060891324,
                "8": -0.06629395803996625,
                "9": -0.007516576326119366,
                "10": -0.3780257984998772,
                "11": 0.014660193532639908,
                "12": 0.04404913982437302,
                "13": 2.7001707379127353,
                "14": 0.08557966593883423,
                "15": -0.1737864960634684,
                "16": -0.02173403593112334,
                "17": -0.03020737841497858,
                "18": 2.571024644560963,
                "19": -0.47362524663247485,
                "20": 0.04293776435080849,
                "21": -0.00171994095293124,
                "22": 0.0683516378511066,
                "23": 0.9704201171958354,
                "24": 0.022193394075166458,
                "25": 0.03085397429400191,
                "26": 0.01911867254963608,
                "27": -0.6834639186415913,
                "28": -0.036226493199343006,
                "29": -0.008634336730239306,
                "30": -0.2719433504528407,
                "31": -0.025088508496675765,
                "32": -0.002391884401598419,
                "33": 0.05186689528572488,
                "34": -0.5466869331318943,
                "35": -0.5965539190772503
            }
        },
        "W2": {
            "n": 4,
            "d": 36,
            "w": {
                "0": 0.8746867797817848,
                "1": 0.008629869102355305,
                "2": 1.3003701620416777,
                "3": -0.34349995360005753,
                "4": 0.6295662311146393,
                "5": -0.028611841075625654,
                "6": -0.6743135839782022,
                "7": 0.018643844401504756,
                "8": -0.07012185758999487,
                "9": -0.059302019732945015,
                "10": -1.318738379710539,
                "11": 0.03888103469693597,
                "12": -0.5582085052869727,
                "13": -1.7068925649336084,
                "14": -0.8053891309318135,
                "15": 0.2421099719820276,
                "16": -0.10623035641565799,
                "17": -0.09490402187205718,
                "18": -1.097707232733405,
                "19": -0.32719184202579793,
                "20": 0.1302422727135271,
                "21": 0.016772628314174455,
                "22": 0.6033051543390768,
                "23": 0.3215669144395995,
                "24": 0.02102220711747235,
                "25": 0.030601780906208607,
                "26": -0.004010299348643188,
                "27": 0.3142798135625348,
                "28": -0.05165874793158956,
                "29": -0.20257266846237718,
                "30": -0.4939368841185815,
                "31": 0.0741566613444354,
                "32": 0.012318331429167243,
                "33": 0.16478991780895477,
                "34": -1.5036933971624507,
                "35": -1.3042249230001992,
                "36": 0.7395804425595722,
                "37": -0.030965054162026346,
                "38": 1.1131202969194929,
                "39": -0.4225111087585688,
                "40": 0.5575478656306564,
                "41": -0.12151489261311127,
                "42": -0.5151527880892122,
                "43": -0.003106012103007069,
                "44": -0.052314921129630015,
                "45": -0.005604255376399653,
                "46": -1.2943081270400822,
                "47": 0.02828262118958069,
                "48": -0.5095045404233849,
                "49": -1.7588394223573918,
                "50": -0.6870152433267556,
                "51": 0.25541324378836044,
                "52": -0.0013647135511200407,
                "53": -0.029366193779688885,
                "54": -1.0692309630253145,
                "55": -0.2706123741123637,
                "56": 0.034745196577450406,
                "57": 0.05626080461785895,
                "58": 0.5894779327677008,
                "59": 0.07337110449661097,
                "60": 0.03223135072918582,
                "61": -0.02233610637015605,
                "62": -0.028046088895479594,
                "63": 0.4981717167896631,
                "64": -0.01718989466551811,
                "65": -0.07816826484866925,
                "66": -0.6377691641525763,
                "67": -0.13931535317168176,
                "68": -0.03700983605823662,
                "69": 0.03870985868723956,
                "70": -1.3646468463851145,
                "71": -1.704861427987769,
                "72": 0.7867836551828544,
                "73": 0.1386140228311686,
                "74": 1.6525985165404573,
                "75": -0.5304665797890055,
                "76": 0.6162191331200569,
                "77": -0.08264403590032521,
                "78": -0.4536203349581015,
                "79": -0.0022894873248844837,
                "80": -0.10446559321620433,
                "81": -0.09045757122779198,
                "82": -1.2055297588190907,
                "83": 0.05301539076435844,
                "84": -0.44009618672371875,
                "85": -1.9317110880804687,
                "86": -0.5610733946953822,
                "87": 0.3421175357043117,
                "88": -0.14842141703156453,
                "89": -0.05873797234442728,
                "90": -1.1302056781206424,
                "91": -0.3729227353396114,
                "92": 0.11884779249785216,
                "93": -0.10319295975163555,
                "94": 0.48702501989202923,
                "95": 0.10163829197890863,
                "96": 0.023864497349269424,
                "97": -0.08131917437461902,
                "98": -0.0032914435723795554,
                "99": 0.5948405505843154,
                "100": -0.02061102706795331,
                "101": -0.10407347633160688,
                "102": -0.49865010005485805,
                "103": -0.07518494862537611,
                "104": -0.03181271581050229,
                "105": 0.10805325809589508,
                "106": -1.2537329510158255,
                "107": -1.8596772222588878,
                "108": 0.7491122542302953,
                "109": -0.02853645565538644,
                "110": 1.6745916930713745,
                "111": -0.4678866006035008,
                "112": 0.7508874463077084,
                "113": -0.23831546496001568,
                "114": -0.4438750635738382,
                "115": -0.18293395539722818,
                "116": 0.06177418341056336,
                "117": -0.03518314162616689,
                "118": -1.1122502570490966,
                "119": 0.14465733755154,
                "120": -0.3186854594290636,
                "121": -1.8808105284578407,
                "122": -0.6687197190029718,
                "123": 0.3333963622909922,
                "124": -0.1053343936066043,
                "125": -0.07376728445458777,
                "126": -0.8735041845210273,
                "127": -0.4049160299790833,
                "128": 0.1330053348657108,
                "129": -0.06879662155663205,
                "130": 0.481571702297799,
                "131": 0.29318248283179277,
                "132": -0.10852292749508992,
                "133": -0.056044229219897684,
                "134": -0.2456956264740012,
                "135": 0.4652439793331557,
                "136": 0.03860880912784378,
                "137": -0.21616230880042198,
                "138": -0.5257403877791905,
                "139": -0.10990787664182762,
                "140": -0.3074558336464756,
                "141": 0.0934093437732311,
                "142": -1.321555704183763,
                "143": -1.2752365370052514
            }
        },
        "b2": {
            "n": 4,
            "d": 1,
            "w": {
                "0": 1.3807698728942375,
                "1": 1.508597465985013,
                "2": 1.2753126799831906,
                "3": 1.3882675742858688
            }
        }
    }
}