{
    "nh": 4,
    "ns": 2,
    "na": 8,
    "net": {
        "W1": {
            "n": 4,
            "d": 2,
            "w": {
                "0": 5.518737856602138,
                "1": 9.176286536233015,
                "2": -11.00055217938371,
                "3": 0.9788372758843639,
                "4": -4.926190273026922,
                "5": 10.374994801484503,
                "6": 1.3095609206612489,
                "7": -0.4981615388699198
            }
        },
        "b1": {
            "n": 4,
            "d": 1,
            "w": {
                "0": -0.8946785323504127,
                "1": -1.1332476544375834,
                "2": 1.0028828436419834,
                "3": 0.004047469126539522
            }
        },
        "W2": {
            "n": 8,
            "d": 4,
            "w": {
                "0": -0.71470299761145,
                "1": -0.8778449089153674,
                "2": 0.9617087520084285,
                "3": -0.010003568862650747,
                "4": -0.8084866761651228,
                "5": -0.9533050845561378,
                "6": 0.84843880798302,
                "7": 0.11151097250840875,
                "8": -0.7513656012122498,
                "9": -0.8623013863931338,
                "10": 0.7849547965779954,
                "11": 0.2766742657633717,
                "12": -0.8557182941798365,
                "13": -0.9655354914410209,
                "14": 0.8127864634068853,
                "15": 0.07514450167485306,
                "16": -1.011354621182467,
                "17": -1.069687145749096,
                "18": 0.7475562636450573,
                "19": -0.2308219604890743,
                "20": -0.9634175249061854,
                "21": -0.8701275541568494,
                "22": 0.8530829194241614,
                "23": -0.11887716658199372,
                "24": -0.8722007204448091,
                "25": -0.8784975878337059,
                "26": 0.7957523666112806,
                "27": -0.09644905124302898,
                "28": -0.768764153581991,
                "29": -0.7982125841659969,
                "30": 0.8976346005758117,
                "31": -0.0643468617837121
            }
        },
        "b2": {
            "n": 8,
            "d": 1,
            "w": {
                "0": 0.565971764129799,
                "1": 0.45835661937385935,
                "2": 0.5739482167371687,
                "3": 0.4643581047149602,
                "4": 0.43396126648924427,
                "5": 0.49684441529474216,
                "6": 0.4854962571322536,
                "7": 0.48025520742819383
            }
        }
    }
}