{
    "nh": 36,
    "ns": 9,
    "na": 4,
    "net": {
        "W1": {
            "n": 36,
            "d": 9,
            "w": {
                "0": -0.00956437126034485,
                "1": 0.08713093995357322,
                "2": -0.08064671885020801,
                "3": 0.003845447194651267,
                "4": -0.0617515788894803,
                "5": 0.020782188578280108,
                "6": 0.015588074898520739,
                "7": 0.008218103183724495,
                "8": -0.009372619490585527,
                "9": -0.005635155424592569,
                "10": 0.009996857648357796,
                "11": 0.0621390433773871,
                "12": -0.004810886378415224,
                "13": 0.03458244652445998,
                "14": -0.018761128239754683,
                "15": 0.0017948148549987637,
                "16": 0.008348272044214823,
                "17": 0.005325414499850989,
                "18": -0.0021705648558121263,
                "19": 0.06023360461625157,
                "20": -0.09185508894695986,
                "21": 0.004113750599927947,
                "22": -0.05749596096053187,
                "23": 0.02043053960747655,
                "24": 0.006569989622469833,
                "25": -0.011748435035631992,
                "26": -0.0100867676553301,
                "27": -0.052364010500808585,
                "28": -0.3160610525450514,
                "29": -0.043327502811427894,
                "30": 1.4546085712708003,
                "31": -1.675436288087134,
                "32": -0.5784992854053584,
                "33": 0.5326924915543725,
                "34": -4.311114692963095,
                "35": -6.889166384345213,
                "36": 0.02025321569559662,
                "37": -0.24412894797910395,
                "38": 0.1627223997174049,
                "39": 0.004598628709027868,
                "40": 0.22214841236683328,
                "41": -0.030447623616321477,
                "42": -0.0763156883440622,
                "43": -0.10544034369821265,
                "44": 0.029076826611845595,
                "45": 0.0056660961965691444,
                "46": -0.10286157344501941,
                "47": -0.11250880374636216,
                "48": 0.01076621048539999,
                "49": -0.04080028319555106,
                "50": 0.03331576664432399,
                "51": -0.021958793084563256,
                "52": -0.04079733374871462,
                "53": -0.007489410931851135,
                "54": -0.02030913180483228,
                "55": -0.03344976518766404,
                "56": -0.2543960171145747,
                "57": -0.3872933913422412,
                "58": 0.10596535906256764,
                "59": 1.133670298331641,
                "60": -0.35081521756558365,
                "61": -2.6436563288118817,
                "62": 9.007895661755892,
                "63": -0.01138738363702335,
                "64": 0.025184019511390633,
                "65": -0.05734579821203084,
                "66": 0.0020991442154358,
                "67": -0.028802899785312343,
                "68": 0.009670987609844913,
                "69": -0.0013007913076865225,
                "70": -0.01971707760655336,
                "71": -0.006173476562957228,
                "72": 0.01969872567328858,
                "73": -0.07749457979202143,
                "74": 0.5370908768859176,
                "75": -0.05703775623498685,
                "76": 0.24224672120996232,
                "77": -0.11976626754097335,
                "78": -0.015608263667326044,
                "79": 0.004882781633826739,
                "80": 0.05288420411797027,
                "81": -0.006642902325437927,
                "82": 0.15498006329889452,
                "83": 0.08830079692979283,
                "84": -0.010882451917561762,
                "85": 0.03513126003400996,
                "86": -0.03667799267501973,
                "87": 0.022895654042069693,
                "88": 0.02360395492362873,
                "89": 0.004049937679328325,
                "90": 0.0007580837090497025,
                "91": 0.0018669319146548998,
                "92": -0.06924368237461902,
                "93": 0.004608023655996964,
                "94": -0.027116888987861538,
                "95": 0.013749815510147135,
                "96": -0.006373757626406668,
                "97": -0.02623482091109912,
                "98": -0.006216949311049013,
                "99": -0.00024701284789590953,
                "100": 0.05325302199298497,
                "101": -0.037493135157191944,
                "102": 0.0013946039822652521,
                "103": -0.022031403445114853,
                "104": 0.005318030833808177,
                "105": 0.005403426345396564,
                "106": -0.005289389349287897,
                "107": -0.004511590430022051,
                "108": 0.20679504822743874,
                "109": -0.6284102089654948,
                "110": -0.13807699387454503,
                "111": -1.3581653420014614,
                "112": 0.42034034251548663,
                "113": 1.1777898535605502,
                "114": 1.1847991499222128,
                "115": -4.985956604821393,
                "116": 9.4801307497352,
                "117": -0.6041646109121809,
                "118": 0.12382863957119919,
                "119": -0.18231596727719787,
                "120": 0.20780085226395853,
                "121": -1.4232397630874258,
                "122": -1.5527007773228987,
                "123": 0.7001745276296332,
                "124": -0.39555530609016526,
                "125": 1.1348984895906713,
                "126": 0.004076358636586537,
                "127": 0.02414990601082812,
                "128": 0.052620254736396053,
                "129": 0.0010081653194735725,
                "130": 0.04037883176527239,
                "131": -0.011565268765823143,
                "132": 0.0038361875537842958,
                "133": 0.016590431800137848,
                "134": 0.006346513099407128,
                "135": 0.010904340633603876,
                "136": -0.08237424792749551,
                "137": 0.08054623041543643,
                "138": -0.002325065329135947,
                "139": 0.05838621254306962,
                "140": -0.017325530014888707,
                "141": -0.011679935968972616,
                "142": 0.0038783341749898024,
                "143": 0.009812752653154849,
                "144": -0.15923901341841798,
                "145": 0.48046758171111614,
                "146": 0.15001440805805638,
                "147": 5.087559482410066,
                "148": -6.487378137561686,
                "149": 0.3435471938438806,
                "150": -0.5780218753841124,
                "151": -4.854273601084428,
                "152": -8.727629366483804,
                "153": -0.005394362725022442,
                "154": 0.045456960366136424,
                "155": -0.07263630612468852,
                "156": 0.004102690358494234,
                "157": -0.04195336114647506,
                "158": 0.016212273281295427,
                "159": 0.004274599165249051,
                "160": -0.009836559603696999,
                "161": -0.007536908633764258,
                "162": -0.007080744363426164,
                "163": -0.1384114523682498,
                "164": -0.024296130482659654,
                "165": 0.005174380662539288,
                "166": 0.008781852734610424,
                "167": 0.012235468650721884,
                "168": -0.024726881690144472,
                "169": -0.0289284059874382,
                "170": 0.001088406860471017,
                "171": -0.004744500821746172,
                "172": 0.039696767787211026,
                "173": 0.01221334698375314,
                "174": -0.0014812891029174807,
                "175": -0.020144432291835462,
                "176": 0.004787022447013454,
                "177": 0.01683713518637818,
                "178": 0.03675080846289683,
                "179": 0.00003984334657387427,
                "180": 0.006045566023032935,
                "181": -0.03177393546835559,
                "182": -0.027661853800680897,
                "183": 0.0027516870269132863,
                "184": -0.01906450228105078,
                "185": 0.0128637850048928,
                "186": -0.002006274471045997,
                "187": 0.0012372429473742849,
                "188": -0.001849503131167559,
                "189": -4.104400835964859,
                "190": 0.20300412844577545,
                "191": 2.8959954648268575,
                "192": -0.7909455863527841,
                "193": 1.3588020056954018,
                "194": 3.2421694402169297,
                "195": -4.144814258404951,
                "196": 4.238490873912164,
                "197": -5.085637525773766,
                "198": -0.0022077149722799514,
                "199": -0.04008567481703535,
                "200": 0.06244592285368709,
                "201": -0.003598267107918925,
                "202": 0.03783499978855455,
                "203": -0.01475736013535076,
                "204": -0.004684539026693947,
                "205": 0.0057736642791290866,
                "206": 0.006479259283482383,
                "207": 0.0019086648591202186,
                "208": 0.9230093893501802,
                "209": -0.33364703155649655,
                "210": 0.3044442168568542,
                "211": 0.5695421801763447,
                "212": -0.3875801888887828,
                "213": -0.06492281707020926,
                "214": 0.3174960443140109,
                "215": 0.12112821743529824,
                "216": 0.0002679233148459954,
                "217": 0.02384252149177835,
                "218": 0.013335397142258794,
                "219": -0.0015016720398015762,
                "220": 0.011610872913486616,
                "221": -0.008145249375637426,
                "222": 0.000780820630763377,
                "223": -0.003687810230270913,
                "224": 0.0007526192417040201,
                "225": 0.0006905231259101046,
                "226": 0.03849922650945234,
                "227": -0.26494389117826767,
                "228": 0.013206006797400726,
                "229": -0.17719390334495988,
                "230": 0.06385259037924208,
                "231": 0.014064649748999774,
                "232": -0.007357242917232569,
                "233": -0.029198303658147944,
                "234": 0.000661967590067813,
                "235": 0.02071307827798418,
                "236": -0.042059117279561214,
                "237": 0.007728977714131544,
                "238": -0.01949421245828526,
                "239": 0.017585113569373336,
                "240": 0.005454407424603658,
                "241": 0.012275870230337278,
                "242": -0.0022005826800671844,
                "243": 0.005783076396679461,
                "244": -0.004440745207346259,
                "245": -0.0566195128513504,
                "246": 0.004289895803618998,
                "247": -0.02433393643090796,
                "248": 0.01350251305095015,
                "249": -0.004409514727668307,
                "250": -0.01678079081709869,
                "251": -0.004841022853900508,
                "252": -0.006733219478796684,
                "253": 0.03036746556998547,
                "254": -0.11892906645056575,
                "255": 0.005219176471876526,
                "256": -0.07689561577207735,
                "257": 0.029886096363116326,
                "258": 0.0036423842751742404,
                "259": -0.015891970343368984,
                "260": -0.012615000872723468,
                "261": -0.019457100368605887,
                "262": 0.20880688704926803,
                "263": -0.27202388675480127,
                "264": 0.005411121806918066,
                "265": -0.25343153928024603,
                "266": 0.050942666092620645,
                "267": 0.06399907471791275,
                "268": 0.06688768229821745,
                "269": -0.040103965379656346,
                "270": -0.002000115891260253,
                "271": 0.017662264441581924,
                "272": 0.033104479353558994,
                "273": -0.004774520734121529,
                "274": 0.028439036299290666,
                "275": -0.018950201231600957,
                "276": -0.004511791258839792,
                "277": -0.017688309917255448,
                "278": 0.001975779592547728,
                "279": -0.00296133919361014,
                "280": 0.008095764384480687,
                "281": 0.015813565230522218,
                "282": -0.0014328272851524472,
                "283": 0.024294074563464278,
                "284": -0.012300786616711712,
                "285": -0.0060702097764971305,
                "286": -0.017968245008413132,
                "287": 0.00140552879536081,
                "288": -0.044971842262968444,
                "289": 0.0633122633546744,
                "290": -0.021347473583424564,
                "291": 0.2742033062632266,
                "292": 0.06090094271269528,
                "293": 0.6155292082293026,
                "294": 0.13331826531213692,
                "295": 0.07588421395956252,
                "296": -0.023470566206987384,
                "297": -0.012962759611054954,
                "298": 0.11400396720158622,
                "299": -0.18750916996825948,
                "300": 0.003249622098308796,
                "301": -0.175514350415974,
                "302": 0.04839221868978925,
                "303": 0.03604966240137185,
                "304": 0.033055718554008205,
                "305": -0.025148150741684704,
                "306": 0.000314892569545601,
                "307": -0.15231836100216914,
                "308": -0.23970463214989432,
                "309": 0.02235155792063872,
                "310": -0.11439788581007206,
                "311": 0.07317260984868003,
                "312": -0.02445179660658223,
                "313": -0.03975644133666068,
                "314": -0.017747248872653314,
                "315": 0.0053526265130131685,
                "316": -0.07384735152650786,
                "317": 0.03731520949030136,
                "318": 0.0037477957779236343,
                "319": 0.05597294128620501,
                "320": -0.010124806693132786,
                "321": -0.017502263283604075,
                "322": -0.014724866625788332,
                "323": 0.007180360971775198
            }
        },
        "b1": {
            "n": 36,
            "d": 1,
            "w": {
                "0": -0.00025496611516069746,
                "1": 0.007912467427969059,
                "2": -0.00404779696744115,
                "3": -0.05945275279111675,
                "4": 0.019817299752734788,
                "5": -0.002070291820701222,
                "6": -0.02093366554543231,
                "7": 0.010077520121690756,
                "8": 0.007025678711628534,
                "9": 0.0029022823441191385,
                "10": -0.0005552179003236425,
                "11": -0.0029769225411710905,
                "12": 0.20580822706034338,
                "13": -0.6189045324426349,
                "14": -0.0030742595653377356,
                "15": -0.0030798629460569438,
                "16": -0.17153181344879295,
                "17": 0.0008932409453465838,
                "18": 0.015382933049340857,
                "19": -0.002693583068566949,
                "20": -0.007179360832740296,
                "21": -4.087741038006475,
                "22": 0.0066005057329393555,
                "23": -0.0025130446631608854,
                "24": 0.0006209080531535818,
                "25": -0.01855863242899549,
                "26": -0.005134085177234991,
                "27": -0.006224446452874145,
                "28": 0.00004431188333604686,
                "29": -0.01912961043762814,
                "30": 0.0065583050620408746,
                "31": 0.007247204924018867,
                "32": -0.03807559262258053,
                "33": -0.011361868345696215,
                "34": -0.0025973524352783527,
                "35": 0.003794365436005279
            }
        },
        "W2": {
            "n": 4,
            "d": 36,
            "w": {
                "0": 0.006417566841834787,
                "1": 0.00037022758898862306,
                "2": 0.0014645106362151067,
                "3": -0.016158005354210716,
                "4": -0.03995238367844096,
                "5": -0.009078533902322135,
                "6": -0.01740392146845288,
                "7": -0.0023106033747850017,
                "8": -0.008985182256834737,
                "9": 0.006615247348044103,
                "10": -0.004437014145966256,
                "11": 0.0008608913984810314,
                "12": -0.4204096706017862,
                "13": 0.40320992771517644,
                "14": 0.0014279904714632548,
                "15": -0.0037391293838705325,
                "16": 0.2770790002160531,
                "17": 0.0006885343122574469,
                "18": -0.0094002853121104,
                "19": 0.009818242480969052,
                "20": 0.0006315057955247157,
                "21": 2.8158340437894833,
                "22": -0.0012760840429532172,
                "23": -0.044316887357981616,
                "24": -0.000962408684674872,
                "25": 0.008470614703691311,
                "26": 0.0033004008147398457,
                "27": -0.002647510266745973,
                "28": 0.0011747375805648869,
                "29": 0.033068319657828,
                "30": -0.004697365479293725,
                "31": -0.005020045025599511,
                "32": 0.06444289994432098,
                "33": 0.019285922233988746,
                "34": -0.006972238612900523,
                "35": -0.008073939817928403,
                "36": 0.0060315121500897845,
                "37": -0.0005688823902589483,
                "38": 0.005572548115053254,
                "39": 0.04215312106793576,
                "40": -0.017063400005094192,
                "41": -0.0029100047162389756,
                "42": 0.05332639256775114,
                "43": 0.003390676823026808,
                "44": -0.016317179274146245,
                "45": 0.00739838237002011,
                "46": 0.0023366483713676196,
                "47": 0.004045898281259432,
                "48": -0.5127387044071833,
                "49": 0.3129178432888185,
                "50": -0.0006205129420262243,
                "51": -0.006433380967493432,
                "52": 0.3849050417005866,
                "53": 0.004233145708936027,
                "54": -0.0068647581735815245,
                "55": 0.0004107399310828544,
                "56": -0.0016996152438755227,
                "57": 3.2803978884660028,
                "58": -0.003558048210954638,
                "59": 0.12222893379287605,
                "60": 0.0015063217897690537,
                "61": 0.008186825481928348,
                "62": 0.0006760080633259719,
                "63": 0.0012697158658740637,
                "64": 0.004474169107595503,
                "65": 0.018712036942866307,
                "66": 0.001734753826728744,
                "67": 0.0012297294633069186,
                "68": -0.03680448528992042,
                "69": 0.009890500091087875,
                "70": -0.0038785696986393366,
                "71": -0.00465744900365359,
                "72": 0.010765666969365867,
                "73": -0.003463183453976409,
                "74": 0.012120098318674829,
                "75": -0.01001848089035224,
                "76": -0.019525408292216866,
                "77": 0.0024696852938927605,
                "78": 0.13010607155094628,
                "79": 0.008442834195250753,
                "80": -0.03960063428855474,
                "81": 0.006324884038455437,
                "82": 0.007738617686824345,
                "83": 0.007563508861193822,
                "84": -0.46829281328915423,
                "85": 0.36264273136489,
                "86": -0.003970330206491102,
                "87": -0.012424950010878764,
                "88": 0.26679724071311195,
                "89": 0.009323238566140545,
                "90": -0.0070091859586886695,
                "91": -0.0027385848589302477,
                "92": -0.001726497003751146,
                "93": 2.7669304842462603,
                "94": -0.007673209436926706,
                "95": 0.0075590483121917565,
                "96": 0.002088251387595397,
                "97": 0.02089363684165537,
                "98": 0.0011993460276508376,
                "99": 0.0049949691732469655,
                "100": 0.011732935619015084,
                "101": 0.02945567097424659,
                "102": 0.003014986048244678,
                "103": 0.002754869716111595,
                "104": -0.00891187297624788,
                "105": 0.017722353584982295,
                "106": 0.004431199107103523,
                "107": -0.007072384242976084,
                "108": 0.005272851010199313,
                "109": -0.007754208118614269,
                "110": 0.005446371384942818,
                "111": -0.121544415945162,
                "112": -0.030832789746203914,
                "113": 0.01585481327921065,
                "114": 0.1135095410862078,
                "115": 0.0021612783229423833,
                "116": -0.0423398709780635,
                "117": -0.021065934182647298,
                "118": 0.0036687825625791666,
                "119": -0.0008842960978067461,
                "120": -0.5027280204065988,
                "121": 0.4423059205144961,
                "122": -0.009492014937008459,
                "123": -0.004026686962464439,
                "124": 0.29779335320410416,
                "125": 0.003788750136533653,
                "126": 0.009565368916574835,
                "127": 0.0031397032101646806,
                "128": 0.007267372025239292,
                "129": 3.075439363384574,
                "130": -0.003741769511325628,
                "131": -0.1164338954424312,
                "132": -0.005077965531359302,
                "133": 0.032666311485257775,
                "134": 0.003328359363014462,
                "135": 0.004407741728594037,
                "136": 0.012086801766309432,
                "137": 0.03716668533174851,
                "138": -0.009218846816590128,
                "139": -0.007307126853077448,
                "140": -0.013990677570597444,
                "141": 0.028067936763509556,
                "142": 0.03664385640532567,
                "143": -0.005544498995190192
            }
        },
        "b2": {
            "n": 4,
            "d": 1,
            "w": {
                "0": 4.190587653762307,
                "1": 4.65062816759617,
                "2": 4.080946568184149,
                "3": 4.432834437699257
            }
        }
    }
}