{
    "nh": 8,
    "ns": 2,
    "na": 8,
    "net": {
        "W1": {
            "n": 8,
            "d": 2,
            "w": {
                "0": 8.435214657860982,
                "1": 3.257558781050941,
                "2": -0.8554232932195831,
                "3": 0.4700477340888441,
                "4": 1.3711467388948106,
                "5": 2.748237768604728,
                "6": -3.7901966083799206,
                "7": 8.408221914133032,
                "8": 0.4482167238654565,
                "9": -1.8880311865427968,
                "10": -0.9391923094688442,
                "11": 8.041373462458049,
                "12": 1.853366508242874,
                "13": -0.44914376991692234,
                "14": -8.213927833898689,
                "15": -1.0152542951804004
            }
        },
        "b1": {
            "n": 8,
            "d": 1,
            "w": {
                "0": -0.2650592492121428,
                "1": 0.0637645678252641,
                "2": 2.000093652646828,
                "3": -1.1093162152042124,
                "4": 0.7044545649308694,
                "5": 0.7196406094421072,
                "6": -0.5195855446882242,
                "7": -0.8495786572663481
            }
        },
        "W2": {
            "n": 8,
            "d": 8,
            "w": {
                "0": -0.9682094707882578,
                "1": 0.2160501893735434,
                "2": -1.212172531960089,
                "3": -0.8597864782853943,
                "4": -0.6091320998779642,
                "5": 1.059136263018263,
                "6": -0.8298517073387203,
                "7": -1.1338621655203662,
                "8": -1.0512443621959837,
                "9": 0.31786764864765016,
                "10": -1.1335421596569821,
                "11": -0.5612879827857581,
                "12": -0.625113493819872,
                "13": 0.9945861212530379,
                "14": -0.8433006361813372,
                "15": -1.3203508013103036,
                "16": -0.5439551696850881,
                "17": 0.4059586223276645,
                "18": -0.683595102006055,
                "19": -0.5051577093490633,
                "20": -0.3041817132286285,
                "21": 0.5418206134339237,
                "22": -0.24146433401885262,
                "23": -0.8391659883885226,
                "24": -1.0151359279625496,
                "25": 0.16029356874211634,
                "26": -1.0804262157524536,
                "27": -1.1058430090933107,
                "28": -1.1331301948875159,
                "29": 0.9420274103629509,
                "30": -0.2532040101158966,
                "31": -0.9598314893971239,
                "32": -0.7403368563977613,
                "33": 0.46446112506473575,
                "34": -0.5937250834232233,
                "35": -0.8786349458266037,
                "36": -0.5486417152539759,
                "37": 0.7208440791159483,
                "38": -0.5094888547428484,
                "39": -0.7980581451775781,
                "40": -1.0976191042919394,
                "41": 0.30198882709060887,
                "42": -1.0000098396037602,
                "43": -1.08622452243189,
                "44": -0.6689762417360176,
                "45": 1.0368944710912242,
                "46": -0.6519023414407425,
                "47": -1.2143452706543274,
                "48": -1.0991870535283543,
                "49": -0.11805521617094368,
                "50": -0.982982795678335,
                "51": -0.8213653195712985,
                "52": -0.7059302015667086,
                "53": 0.998319711508707,
                "54": -0.4707545582702217,
                "55": -0.8908917970755134,
                "56": -0.9829213597077439,
                "57": -0.005696679801009113,
                "58": -0.6541442315977313,
                "59": -0.6980596882536378,
                "60": -0.47257645839993845,
                "61": 1.02278881359634,
                "62": -0.5174065673328144,
                "63": -0.9718651782649614
            }
        },
        "b2": {
            "n": 8,
            "d": 1,
            "w": {
                "0": 0.435382269883078,
                "1": 0.5790459314399283,
                "2": 0.5994664280559362,
                "3": 0.6664585545677363,
                "4": 0.21563890547131195,
                "5": 0.12335239991925256,
                "6": 0.4165992802205232,
                "7": 0.14652223663642128
            }
        }
    }
}