{
    "nh": 20,
    "ns": 15,
    "na": 4,
    "net": {
        "W1": {
            "n": 20,
            "d": 15,
            "w": {
                "0": -0.020502444692417715,
                "1": 0.2054310854754098,
                "2": 0.41351463767857066,
                "3": 0.07925402482911789,
                "4": -0.1476297652103635,
                "5": -0.05185925467578332,
                "6": 0.007507482814960347,
                "7": 0.023599357455058624,
                "8": -0.16702346976431615,
                "9": -0.03643312602110497,
                "10": -0.02185308212800974,
                "11": 0.03728547532570257,
                "12": -0.0047219694422968184,
                "13": 0.03142575866028355,
                "14": 0.07090180037947345,
                "15": 0.018435268387093553,
                "16": -0.3435893653493605,
                "17": -0.08491273386085715,
                "18": 0.010092778172411138,
                "19": 0.13206826290836055,
                "20": -0.0021493369533788363,
                "21": -0.030806548781112202,
                "22": 0.0019033826314335184,
                "23": -0.0003886291989308131,
                "24": -0.01771597609107208,
                "25": 0.03542068702172891,
                "26": 0.022462362094941037,
                "27": 0.028993378607066776,
                "28": 0.008139238280525159,
                "29": -0.01772290546790661,
                "30": 0.10030957069195087,
                "31": -0.13803004462902024,
                "32": -0.2993058852570778,
                "33": 0.010352061325375033,
                "34": -0.05172914669808814,
                "35": -0.07817259804352908,
                "36": -0.13758689286366232,
                "37": -0.04770067824283417,
                "38": 0.08574854499079115,
                "39": -0.06916178869335429,
                "40": 0.09177236579377109,
                "41": 0.06689889370263973,
                "42": 0.001397620018212266,
                "43": 0.06235339368960152,
                "44": -0.034622922242818516,
                "45": 0.08660091806786248,
                "46": -0.5911180476477079,
                "47": -0.5163775527572184,
                "48": -0.04112327249501582,
                "49": 0.19083863071917803,
                "50": 0.008114100150806146,
                "51": -0.11562431706825645,
                "52": 0.20686461866890563,
                "53": 0.2609528581556364,
                "54": -0.005998462765602152,
                "55": -0.032242550082194454,
                "56": -0.08097389783503124,
                "57": 0.006471700203621187,
                "58": -0.10101174844142569,
                "59": -0.0059538978896814705,
                "60": -0.07872070208226306,
                "61": 5.98502944652947,
                "62": -11.606658362055297,
                "63": -0.15073043799544786,
                "64": 1.6754593234497752,
                "65": 0.7095518454645329,
                "66": -0.30333832496834745,
                "67": 0.841476132401534,
                "68": 0.507848624374651,
                "69": -0.42942984511462506,
                "70": 0.2196085775815219,
                "71": -0.06154206923574903,
                "72": -0.4283223640794474,
                "73": -0.05779517085308433,
                "74": 0.18161742076556892,
                "75": -0.02225868393645813,
                "76": 0.6946151038519279,
                "77": 0.385642832525144,
                "78": 0.010402590066884492,
                "79": -0.16738797717439086,
                "80": -0.10348425757423498,
                "81": 0.0038876824400404207,
                "82": 0.011163476072863708,
                "83": 0.07389117116503933,
                "84": 0.02072427268975965,
                "85": -0.13628608004250628,
                "86": -0.05259806859124849,
                "87": 0.02230853719428352,
                "88": -0.0914967422801657,
                "89": 0.0801113235688298,
                "90": 0.07783095505190259,
                "91": 0.42081722041526987,
                "92": -0.11194912122050811,
                "93": -0.18299333477744645,
                "94": -0.13209321727078666,
                "95": 0.15136501557948767,
                "96": 0.0026097223611455376,
                "97": -0.013777907116232726,
                "98": -0.022694635226729487,
                "99": 0.03568681260246249,
                "100": 0.025019915412453707,
                "101": -0.06725191507230883,
                "102": -0.01788410669039038,
                "103": -0.06315802276591218,
                "104": -0.03733681692622683,
                "105": 0.1374503090382869,
                "106": -0.1071155748228026,
                "107": -0.546038377849311,
                "108": -0.03277989412730742,
                "109": 0.032338157744343794,
                "110": 0.019691204497148538,
                "111": -0.077050392939193,
                "112": 0.023429384847014432,
                "113": 0.13792067913291908,
                "114": -0.04472466845471658,
                "115": 0.03725480749385431,
                "116": -0.020236814687386778,
                "117": -0.12951892516035238,
                "118": -0.01680666973594574,
                "119": -0.010696323924676437,
                "120": -0.05124496909632007,
                "121": -0.11741601746833753,
                "122": 0.0032359952135892966,
                "123": 0.09703512986985875,
                "124": 0.06908181007471649,
                "125": -0.06217525180783182,
                "126": 0.037664401098744076,
                "127": -0.01664699379779218,
                "128": 0.07910103584552779,
                "129": -0.0034213612821233186,
                "130": -0.0153097101368553,
                "131": 0.015484315751188419,
                "132": -0.018862438467075027,
                "133": 0.00031995577976557494,
                "134": -0.008845787304961742,
                "135": 0.07410577089252782,
                "136": -0.291077972866009,
                "137": -0.4139960843458049,
                "138": -0.09918210265625191,
                "139": 0.10943854691244016,
                "140": 0.10546461893538045,
                "141": -0.06066919489368825,
                "142": 0.158950027714648,
                "143": 0.14833387556348804,
                "144": -0.0037718384808348515,
                "145": -0.0022342667194938156,
                "146": -0.08502905199325561,
                "147": 0.015450829704678308,
                "148": -0.1307727224486706,
                "149": -0.03573049133764146,
                "150": 0.007192978977204234,
                "151": 1.4614862165457017,
                "152": -0.09977950201487519,
                "153": -0.05993533701319429,
                "154": -0.5483494382856112,
                "155": 0.31291851754939515,
                "156": 0.09477829033040369,
                "157": 0.13856851593448055,
                "158": 0.17189450300282916,
                "159": -0.0012044221042794817,
                "160": -0.0688408411308973,
                "161": -0.0025367853547576644,
                "162": -0.12341789588588842,
                "163": 0.1867528322222667,
                "164": -0.0008112116584864581,
                "165": 0.5135717338370399,
                "166": 1.8427609527476647,
                "167": 11.500360223023879,
                "168": -0.12924851195490653,
                "169": -0.29118660037241045,
                "170": 0.38009665669844,
                "171": -0.34253114706452603,
                "172": -0.538360966650069,
                "173": -0.15091001801988094,
                "174": -0.40381640764688087,
                "175": -0.011779873040355108,
                "176": 0.17694101193972941,
                "177": -0.851544834996288,
                "178": -0.09761658625614836,
                "179": -0.05570049296131241,
                "180": 0.0034799951935927886,
                "181": -0.12111730341183582,
                "182": -0.04195390510027767,
                "183": 0.058933106681666764,
                "184": 0.0003239759005933831,
                "185": -0.042622287665826965,
                "186": -0.023252795420372733,
                "187": 0.06824227873981398,
                "188": 0.0446549462487865,
                "189": -0.007556021316825707,
                "190": -0.02085550094581408,
                "191": -0.0007167944238027861,
                "192": -0.029820910408391122,
                "193": -0.005600112444862217,
                "194": 0.022949688789900304,
                "195": 0.1724353081420421,
                "196": -0.2597229196470473,
                "197": -0.20931350018864034,
                "198": -0.12362958889994301,
                "199": 0.0830890614817042,
                "200": 0.057161507337918895,
                "201": -0.11430454902788625,
                "202": 0.02092912184376963,
                "203": -0.051745583138554305,
                "204": -0.016206909632561134,
                "205": 0.05419730001440194,
                "206": -0.03974598155151521,
                "207": -0.07098125805386866,
                "208": 0.023630938234709967,
                "209": 0.009840728116380044,
                "210": -0.16637766600692064,
                "211": 1.1158493098102864,
                "212": -0.5317486337257478,
                "213": -0.015314275875061246,
                "214": 0.6574564151287039,
                "215": -0.2055408460841058,
                "216": 0.08825455594846181,
                "217": 0.023500611811380287,
                "218": 0.2028310984875993,
                "219": 0.2387736590403626,
                "220": 0.042048450650474016,
                "221": -0.002633169282127568,
                "222": 0.0935164978430582,
                "223": 0.16886795638118693,
                "224": 0.08314857355063125,
                "225": -0.12117035315706551,
                "226": 0.5049681768114304,
                "227": -1.6647060555447382,
                "228": -0.18424924813601767,
                "229": -0.06897276338635329,
                "230": 0.23153330509136696,
                "231": 0.06383179002206218,
                "232": -0.036411925634842766,
                "233": 0.22816082924397663,
                "234": 0.22730726761555675,
                "235": 0.06193371107520825,
                "236": 0.09191940807292083,
                "237": 0.17548008846895835,
                "238": -0.16966222074207754,
                "239": 0.147098265047135,
                "240": 0.08625318021867212,
                "241": -0.006915296004834922,
                "242": -0.460061458129999,
                "243": -0.04003871428958122,
                "244": -0.050017731485117345,
                "245": 0.08315268905658195,
                "246": -0.024329653694813807,
                "247": 0.0892342519154224,
                "248": 0.08477983526565276,
                "249": -0.008297892775052723,
                "250": 0.018291900263001933,
                "251": 0.009669543670847916,
                "252": -0.10132505908856823,
                "253": -0.06113950610145775,
                "254": -0.032604839113811734,
                "255": 0.08758583226936953,
                "256": 1.0277932404915373,
                "257": 0.12765270115804567,
                "258": -0.08890051606383603,
                "259": -0.27102034537133746,
                "260": 0.09020713645576924,
                "261": 0.06400122886420095,
                "262": -0.14153469298166288,
                "263": 0.039935202738499556,
                "264": -0.016079300596435336,
                "265": -0.04554755346616935,
                "266": -0.14608596026046042,
                "267": -0.20384579672150763,
                "268": 0.028292660652126593,
                "269": -0.016685073370590414,
                "270": 0.046173152413734216,
                "271": -0.2794515771595727,
                "272": -0.33305774689186873,
                "273": -0.09548476981159476,
                "274": 0.02663914138602176,
                "275": 0.1161896854846417,
                "276": -0.057623219551137625,
                "277": 0.1103633604273609,
                "278": -0.02878187451809156,
                "279": 0.04747523011013826,
                "280": 0.04193552417079347,
                "281": 0.006372162086918221,
                "282": 0.007986734140265753,
                "283": -0.027239572825415368,
                "284": -0.02690363678986054,
                "285": -0.06091980769498665,
                "286": 0.5327267133528395,
                "287": 0.10774935898153994,
                "288": -0.019205369742797154,
                "289": -0.1772784089004878,
                "290": -0.05282557631171522,
                "291": 0.0616501933677531,
                "292": -0.0423682526553809,
                "293": 0.07644819969020096,
                "294": 0.061814594985460686,
                "295": -0.06721936926679277,
                "296": -0.031850118178981444,
                "297": -0.0030748911742789296,
                "298": 0.0033151492689764326,
                "299": 0.022798719732284735
            }
        },
        "b1": {
            "n": 20,
            "d": 1,
            "w": {
                "0": -0.014280090366477925,
                "1": 0.005067968557563982,
                "2": 0.08919133345288288,
                "3": 0.09232492914089406,
                "4": 0.27988064535800017,
                "5": -0.034916765832556415,
                "6": 0.057263445086278,
                "7": 0.13951214981905355,
                "8": -0.055591764252169225,
                "9": 0.08170097938226514,
                "10": 0.0009927813148902988,
                "11": 0.9671155815954411,
                "12": 0.007451803468834802,
                "13": 0.16287375934136122,
                "14": -0.2400624261853717,
                "15": -0.17881009040322543,
                "16": 0.07195906497230059,
                "17": 0.09856311615820709,
                "18": 0.05039441607420065,
                "19": -0.06334571177807384
            }
        },
        "W2": {
            "n": 4,
            "d": 20,
            "w": {
                "0": -0.009905183992985574,
                "1": -0.01174619459091248,
                "2": -0.00026379118163949455,
                "3": -0.012887858832082343,
                "4": -0.24132532849809563,
                "5": 0.014596187911745332,
                "6": 0.03428467959826596,
                "7": 0.008377874650931335,
                "8": -0.006980072371826403,
                "9": 0.007446430477700407,
                "10": 0.06794267867183197,
                "11": -0.18716995866298008,
                "12": -0.008934478227141685,
                "13": -0.004052540832323701,
                "14": 0.03338314849538931,
                "15": 0.03770179203149389,
                "16": 0.013163344434186675,
                "17": 0.05416878474474436,
                "18": -0.0005828901490416906,
                "19": 0.016901069954090214,
                "20": 0.003662259697284861,
                "21": -0.015701868341289213,
                "22": -0.017428087562387916,
                "23": 0.021344203914049124,
                "24": -0.1528736964411536,
                "25": 0.05886256952060547,
                "26": 0.005276843065003016,
                "27": -0.000004852968260926692,
                "28": 0.0035153921345749454,
                "29": 0.013670444145271491,
                "30": 0.09468466945779178,
                "31": -0.3179099729292743,
                "32": 0.008931635381444309,
                "33": -0.014315919345620171,
                "34": 0.11776219452056547,
                "35": 0.0011550350125946818,
                "36": -0.0007075783761312135,
                "37": 0.039412943751556406,
                "38": -0.016722601965723925,
                "39": 0.02979153133515952,
                "40": 0.03633130521637251,
                "41": -0.019913479485141397,
                "42": -0.017737486375145092,
                "43": -0.05915947355331441,
                "44": -0.2567095780666212,
                "45": 0.042942011681737786,
                "46": 0.0021963800334892053,
                "47": -0.03480883310812603,
                "48": -0.00468632301143834,
                "49": -0.04678802191543273,
                "50": 0.11376028757672366,
                "51": -0.2977378333211631,
                "52": -0.004517886084092769,
                "53": -0.02238390171972978,
                "54": 0.04016691207276944,
                "55": -0.07270363021097008,
                "56": -0.026262534145901243,
                "57": 0.052308000815461865,
                "58": -0.02856135146904394,
                "59": 0.03082812129073985,
                "60": 0.011947840140591689,
                "61": -0.023502142620725537,
                "62": -0.01778929890878116,
                "63": 0.0011595201306121758,
                "64": -0.20843369009636536,
                "65": 0.05618138190344996,
                "66": 0.017055163041478857,
                "67": -0.0005081608605275556,
                "68": -0.0039666735520008725,
                "69": 0.006435281118400259,
                "70": 0.08199428296107265,
                "71": -0.22391462109342958,
                "72": 0.005517531286825641,
                "73": -0.025846456296001286,
                "74": -0.022054756693355285,
                "75": 0.057895685830819124,
                "76": 0.02101058356962549,
                "77": 0.033125683894297514,
                "78": -0.002629746413101221,
                "79": 0.034749159546567515
            }
        },
        "b2": {
            "n": 4,
            "d": 1,
            "w": {
                "0": 0.6154885424470927,
                "1": 0.8084105298370338,
                "2": 0.6320448213000422,
                "3": 0.6548086393550627
            }
        }
    }
}