{
    "nh": 20,
    "ns": 15,
    "na": 4,
    "net": {
        "W1": {
            "n": 20,
            "d": 15,
            "w": {
                "0": 0.1478909871178394,
                "1": 0.24875723830944585,
                "2": 0.8735719930912218,
                "3": 0.2810391154174451,
                "4": -0.837528501291299,
                "5": 0.4743345148906608,
                "6": -0.162710144036025,
                "7": -0.24236646195957565,
                "8": -0.12677671032691792,
                "9": -0.2945970002702908,
                "10": -0.2681032805374348,
                "11": -0.06404827454581508,
                "12": -0.2171445029536068,
                "13": -0.20023799485945537,
                "14": -0.15604209425262078,
                "15": -0.017016785055223874,
                "16": -0.44594673358144477,
                "17": -0.14903697145558875,
                "18": -0.031900523038573846,
                "19": 0.1655683781084726,
                "20": -0.020561607139311263,
                "21": -0.04562424166225269,
                "22": -0.3396305290901315,
                "23": 0.014696513360765747,
                "24": -0.007491660312457856,
                "25": -0.16042695215391714,
                "26": -0.1631780608007742,
                "27": 0.044232808540666746,
                "28": -0.1540104364909451,
                "29": -0.12650879203318138,
                "30": 0.15942807376064647,
                "31": -0.24867621300123763,
                "32": -0.43655204149238375,
                "33": -0.03432860177921247,
                "34": 0.018770969664460253,
                "35": -0.26608162460677376,
                "36": -0.13349217236230512,
                "37": 0.1446003373952033,
                "38": 0.26817994431837333,
                "39": -0.03054708104112539,
                "40": 0.30343880831340686,
                "41": -0.06513511599769745,
                "42": 0.008692342475181516,
                "43": 0.12262278825436353,
                "44": -0.0823124965870929,
                "45": 0.09201401879760966,
                "46": -0.6862477147527309,
                "47": -0.20463887329565705,
                "48": -0.32551137747864034,
                "49": 0.3115213167219482,
                "50": -0.1625195139150817,
                "51": 0.328379570737351,
                "52": 0.6505098192279996,
                "53": 0.4016151889521269,
                "54": 0.707730034114588,
                "55": -0.03373858364880929,
                "56": 0.6237188513430237,
                "57": 0.6041914510845765,
                "58": 0.44122026232136596,
                "59": -0.0475487360877042,
                "60": -0.18308092778147816,
                "61": 10.067754361040285,
                "62": -9.390080106552206,
                "63": -0.4398333910366026,
                "64": -0.7326645958941413,
                "65": 2.0781669646107637,
                "66": -0.4931651075404072,
                "67": -0.5306789655176959,
                "68": 0.41689988505376047,
                "69": -0.16297392191941973,
                "70": -0.36259211559891713,
                "71": 0.19772343460023104,
                "72": -0.20652240394902532,
                "73": -0.35336710553130335,
                "74": 0.35619397007104014,
                "75": -0.02004977687280816,
                "76": 0.7792596255141842,
                "77": 0.5395575913727108,
                "78": 0.05325659191956325,
                "79": -0.4472510311069814,
                "80": -0.06430608121596433,
                "81": -0.05968074463070604,
                "82": -0.029759248600731085,
                "83": 0.124971688386053,
                "84": -0.06580958066669301,
                "85": -0.23938196658640334,
                "86": -0.10529450852422949,
                "87": -0.033105198432601485,
                "88": -0.1448126878898041,
                "89": 0.3295865363943977,
                "90": 0.1327735044608585,
                "91": 0.46874046613734044,
                "92": -0.10043221217827956,
                "93": -0.14333437464043308,
                "94": -0.20751601290246266,
                "95": 0.3744663607707837,
                "96": -0.013721048629034114,
                "97": 0.1854918172164,
                "98": 0.05238240887636579,
                "99": 0.012494078507202551,
                "100": 0.23004181405821825,
                "101": 0.009037932592776934,
                "102": -0.03283047249405693,
                "103": 0.033410440908377984,
                "104": 0.10637125646570542,
                "105": 0.0787520486380472,
                "106": -0.20106670324849868,
                "107": -0.7165117314133322,
                "108": -0.1318866570536394,
                "109": 0.9262643270667511,
                "110": -0.557021586827347,
                "111": -0.08033519397465834,
                "112": 1.246055380504543,
                "113": 0.1010895893425749,
                "114": 0.003342770335775467,
                "115": 0.893609105086779,
                "116": 0.12381156511840179,
                "117": -0.11343913565544768,
                "118": 0.7637991575704224,
                "119": -0.04327365601635875,
                "120": -0.13888737472956247,
                "121": -0.0523034990493339,
                "122": -0.0205628513379338,
                "123": -0.013793362432667773,
                "124": 0.1898901359760519,
                "125": -0.29300340805366204,
                "126": 0.12881270929433036,
                "127": -0.11530914441682895,
                "128": 0.09406024258490896,
                "129": 0.0885457136794227,
                "130": -0.007891279411326894,
                "131": 0.2089599842824877,
                "132": 0.04983623424749286,
                "133": -0.09718548085397384,
                "134": 0.11440398547314662,
                "135": 0.13965648199518876,
                "136": -0.5090637149755998,
                "137": -0.5119200768019808,
                "138": -0.11615343279945951,
                "139": 0.3577143514707958,
                "140": 0.36862643649773597,
                "141": 0.05150127275110259,
                "142": 0.4134317778284433,
                "143": 0.5201347360351294,
                "144": 0.15479727002463184,
                "145": 0.04245757043209127,
                "146": 0.3954714903595333,
                "147": 0.11799901677110199,
                "148": -0.05559371155416805,
                "149": 0.4566521910571854,
                "150": 0.4148925531437542,
                "151": 2.639102374442128,
                "152": 2.0753184499422996,
                "153": 0.453770113029625,
                "154": 0.6534809278670081,
                "155": 5.529919582867882,
                "156": 0.06047729066932838,
                "157": 0.3180687756304734,
                "158": 0.0792676278312461,
                "159": -0.07764119044364129,
                "160": 0.2559911979716354,
                "161": -0.25014797603303385,
                "162": 0.02678183045073993,
                "163": 0.21323588040756253,
                "164": -0.25216842304879855,
                "165": -0.29217888100577283,
                "166": 7.034867007168833,
                "167": 10.151051690454874,
                "168": -0.9353765292932692,
                "169": -1.2582149782906813,
                "170": -1.9816650400093465,
                "171": -0.10409878268838907,
                "172": -0.5308451352982483,
                "173": -0.26604953954424987,
                "174": 0.255473410633452,
                "175": -0.46472040988749375,
                "176": -0.47536682090165666,
                "177": -0.1277724049636776,
                "178": -0.40604262116505135,
                "179": -0.27498691613953963,
                "180": 0.04071923697659202,
                "181": -0.2491028119235834,
                "182": -0.05278373425051986,
                "183": 0.05990463506974271,
                "184": 0.013219901376477584,
                "185": -0.07149969151899073,
                "186": 0.004100529354994433,
                "187": 0.25645205740774357,
                "188": 0.1110130505432953,
                "189": 0.01580877830008832,
                "190": 0.049206030765094236,
                "191": 0.19687239442263504,
                "192": -0.03159238544439466,
                "193": 0.11782200529816098,
                "194": 0.1828486757897809,
                "195": 0.16060843694691068,
                "196": -0.060123998107604146,
                "197": -0.43215180971073824,
                "198": -0.1074870944337874,
                "199": -0.09745821162059531,
                "200": -0.03928191371794266,
                "201": -0.17388802894788052,
                "202": -0.272235987507153,
                "203": -0.4462846825959233,
                "204": -0.03147925757562088,
                "205": -0.26926613361584617,
                "206": -0.7945558568022997,
                "207": -0.04815709157047003,
                "208": -0.44651598426515327,
                "209": -0.5645974189598494,
                "210": 0.09707001096595937,
                "211": 2.749643788207506,
                "212": -0.3683159675753405,
                "213": 0.3810544821801067,
                "214": 5.710242060736935,
                "215": -3.252830032223621,
                "216": 0.43368094716146904,
                "217": -0.037440552738017975,
                "218": 0.3405084739785977,
                "219": 0.2303265401342747,
                "220": -0.08693284481267603,
                "221": 0.29321939337191544,
                "222": 0.21906597887751902,
                "223": -0.047841666849368414,
                "224": 0.15915366554404853,
                "225": 0.043344519930788784,
                "226": 1.6616222699931804,
                "227": -1.2314997088323734,
                "228": 0.12530931583703006,
                "229": -0.9379930726915121,
                "230": 0.518835280554076,
                "231": 0.30502206020625294,
                "232": -0.5271442753869323,
                "233": 2.017576844032697,
                "234": 0.48993825710485067,
                "235": -0.7844326656471637,
                "236": 2.0351151564670515,
                "237": 0.4778707528450797,
                "238": -0.012395958623123638,
                "239": 1.5496030933225708,
                "240": 0.18884425086898823,
                "241": -0.14113366877887717,
                "242": -0.9064728487112663,
                "243": 0.05783128974063784,
                "244": -0.6685817965579832,
                "245": 0.41230122437974864,
                "246": -0.0012782039907976827,
                "247": -0.052214381259087256,
                "248": 0.23936370352668918,
                "249": 0.07847859603363112,
                "250": 0.04292163287276333,
                "251": 0.20352048964000902,
                "252": 0.0010125941445460267,
                "253": 0.05080078475511498,
                "254": 0.1590419402040396,
                "255": 0.2756392985335409,
                "256": 4.645138007515054,
                "257": 0.4282761271988816,
                "258": 0.1384501562694081,
                "259": -5.453159143808261,
                "260": -2.769214906284594,
                "261": 0.2612496848511376,
                "262": 0.31377539890432515,
                "263": -0.12143268184940803,
                "264": 0.12402511622191127,
                "265": 0.17754639970201322,
                "266": -0.07645444465478667,
                "267": -0.1844074319274221,
                "268": 0.2519821375906344,
                "269": -0.10075784632083326,
                "270": 0.08137734399080872,
                "271": -0.46108888207373333,
                "272": -0.6408730843089344,
                "273": -0.0882998974381692,
                "274": -0.23941364699778864,
                "275": 0.2887920665686196,
                "276": -0.09378379003022362,
                "277": 0.28713914507758387,
                "278": -0.0951808606724421,
                "279": 0.08362430857478594,
                "280": 0.1137758799331484,
                "281": 0.0841580431081091,
                "282": 0.026341646903981268,
                "283": 0.20719370923011843,
                "284": -0.04594375359502139,
                "285": -0.25256986648193774,
                "286": 0.8743658407257058,
                "287": 0.08724632375712082,
                "288": -0.16177864993905786,
                "289": -0.24312417109694484,
                "290": -0.36197428476643084,
                "291": 0.04799449979507177,
                "292": 0.07276940143987241,
                "293": 0.051704517987615786,
                "294": 0.07519106284520122,
                "295": -0.03398083709115423,
                "296": 0.0393984648562057,
                "297": 0.02302292406219892,
                "298": -0.11231783525863723,
                "299": -0.07853021762542026
            }
        },
        "b1": {
            "n": 20,
            "d": 1,
            "w": {
                "0": 0.154113341443785,
                "1": -0.030384084884753304,
                "2": 0.1483098365215804,
                "3": 0.09773802987064718,
                "4": 0.17552041965879933,
                "5": -0.032707858768899783,
                "6": 0.1122059944952427,
                "7": 0.08081388941881486,
                "8": -0.14323416988541243,
                "9": 0.14725169048492454,
                "10": 0.40869235548144056,
                "11": 0.161364966752568,
                "12": 0.04469104525183261,
                "13": 0.1510468881462274,
                "14": 0.02338525078752238,
                "15": -0.014295217315372899,
                "16": 0.1745501356226273,
                "17": 0.28661658242239724,
                "18": 0.0855986076512797,
                "19": -0.25499577056502415
            }
        },
        "W2": {
            "n": 4,
            "d": 20,
            "w": {
                "0": 0.22603590831859788,
                "1": -0.027602051967486885,
                "2": 0.03056073393992109,
                "3": -0.6956658786899652,
                "4": -0.5924229042394812,
                "5": 0.017996435100479432,
                "6": 0.0022720206453625573,
                "7": -0.5144449131615508,
                "8": -0.1499006542497394,
                "9": 0.17531465389966336,
                "10": 0.7794609871382635,
                "11": -0.5245045519695223,
                "12": -0.04488825909419896,
                "13": -0.08647392166794143,
                "14": 0.8491575483278078,
                "15": 0.100745207428941,
                "16": -0.3368344741063073,
                "17": 0.8809577801797398,
                "18": 0.05235077458202189,
                "19": -0.12377496469677222,
                "20": 0.10113378029040489,
                "21": -0.004173219144332008,
                "22": -0.1294362184362625,
                "23": -0.5368377894726359,
                "24": -0.4705912548172943,
                "25": 0.06449436601839424,
                "26": 0.07654492248045139,
                "27": -0.2455702762257508,
                "28": -0.03455613200138272,
                "29": -0.13335228796227203,
                "30": 0.8075138680755897,
                "31": -0.5566963223761284,
                "32": -0.08726407496389275,
                "33": 0.12803982901701788,
                "34": 0.9004953601915102,
                "35": 0.26941833784072844,
                "36": -0.0225157687343753,
                "37": 0.868788217747173,
                "38": -0.10167502246815058,
                "39": 0.05273660247968543,
                "40": -0.043385993883664396,
                "41": 0.07983242639480168,
                "42": -0.025705432633099514,
                "43": -0.6727149064366849,
                "44": -0.47498207592734054,
                "45": 0.030065223178916085,
                "46": -0.0501291796706024,
                "47": -0.29613178645381427,
                "48": 0.04497612584505979,
                "49": -0.04180244616680771,
                "50": 0.7886911545072642,
                "51": -0.687956110083791,
                "52": -0.10086580509889306,
                "53": 0.19256595710263796,
                "54": 0.8716486382770177,
                "55": 0.19335594705070747,
                "56": 0.00845622614249434,
                "57": 0.9021746969659394,
                "58": -0.049515594241148486,
                "59": 0.150335772238122,
                "60": 0.05760113081914285,
                "61": 0.02291443794948699,
                "62": 0.07222231549236473,
                "63": -0.5779007002223047,
                "64": -0.7195500710992154,
                "65": 0.061988972595934666,
                "66": 0.014450898330149353,
                "67": -0.4713756278625457,
                "68": -0.06186673334879376,
                "69": 0.13056023784713147,
                "70": 0.7673208661902076,
                "71": -0.6796243772279823,
                "72": 0.02027532649096315,
                "73": 0.16296455639048224,
                "74": 0.8501643997733456,
                "75": 0.1843806511860301,
                "76": -0.010597692269623232,
                "77": 0.9176864764161882,
                "78": 0.04234070280511843,
                "79": -0.1790537863881524
            }
        },
        "b2": {
            "n": 4,
            "d": 1,
            "w": {
                "0": -0.731522791577093,
                "1": -0.7428188934376796,
                "2": -0.6014068618986348,
                "3": -1.2194985754188694
            }
        }
    }
}4188694
            }
        }
    }
}